tree
version=v3
num_class=1
num_tree_per_iteration=1
label_index=0
max_feature_idx=8
objective=binary sigmoid:1
feature_names=age fare sex n_siblings_spouses parch class deck embark_town alone
feature_infos=[0.75:80] [0:512.32920000000001] [0:1] [0:6] [0:5] [0:2] [0:7] [0:3] [0:1]
tree_sizes=3345 3356 3382 3372 3392 3400 3393 3400 3384 3396 3396 3395 3398 3382 3401 3398 3396 3399 3395 3399 3392 3382 3398 3403 3413 3397 3403 3402 3417 3425 3403 3429 3419 3431 3413 3426 3442 3026 3442 3428 3433 2414 3433 2830 3446 3438 3433 3353 3451 3450 3452 3441 3427 3450 3452 3426 3443 3442 3450 3437 3440 3450 3446 3463 3453 3448 3454 3457 3447 3468 3468 2854 3466 3459 3476 3458 3441 3463 2861 3452 3450 3458 3460 3476 3273 3463 3453 3473 3481 3453 3456 3475 3444 3468 3470 3443 3465 3492 3468 3468

Tree=0
num_leaves=32
num_cat=0
split_feature=2 5 6 1 0 0 0 0 5 7 1 1 1 0 6 0 1 1 1 0 0 1 0 0 1 1 0 0 0 1 0
split_gain=214.009 33.0848 19.2451 13.1413 10.3006 5.91404 3.28203 5.85046 3.2707 3.29368 2.70934 2.41831 3.38549 4.02885 2.24696 1.55385 1.48664 1.42989 1.3047 1.86139 1.08928 0.919885 0.780799 1.98616 0.525618 0.789041 1.78333 0.731365 0.885293 2.68192 0.752705
threshold=1.0000000180025095e-35 1.5000000000000002 4.5000000000000009 24.808350000000001 28.250000000000004 3.5000000000000004 36.500000000000007 47.500000000000007 1.0000000180025095e-35 1.0000000180025095e-35 56.197900000000011 15.372900000000001 7.883350000000001 21.500000000000004 2.5000000000000004 28.250000000000004 29.850000000000005 7.883350000000001 17.600000000000005 17.500000000000004 37.500000000000007 90.539600000000021 27.500000000000004 22.500000000000004 13.208350000000001 7.910400000000001 38.500000000000007 31.500000000000004 26.500000000000004 8.0812500000000025 20.250000000000004
decision_type=2 2 2 2 2 2 2 2 2 2 2 2 2 2 2 2 2 2 2 2 2 2 2 2 2 2 2 2 2 2 2
left_child=1 16 6 4 11 -4 14 -8 -7 15 18 12 -3 -14 21 17 20 -10 19 -11 22 -2 23 -1 25 -21 27 28 30 -30 -27
right_child=2 3 5 -5 -6 8 7 -9 9 10 -12 -13 13 -15 -16 -17 -18 -19 -20 24 -22 -23 -24 -25 -26 26 -28 -29 29 -31 -32
leaf_value=-0.19955642284950764 -0.46564438255570839 -0.28732849289148354 -0.41020939095024989 -0.58575353103420191 -0.48781837919789184 -0.48781837919789184 -0.59277529663756001 -0.42129638927134155 -0.53660117181069533 -0.49447057819054685 -0.49122976329668927 -0.24912182710850561 -0.31445804181354875 -0.49447057819054685 -0.32594820370995292 -0.57873176543084381 -0.2051738353321938 -0.42935966077759008 -0.6208623590509923 -0.59380601452429149 -0.30488290689987863 -0.39105912112290964 -0.19955642284950742 -0.32594820370995292 -0.6208623590509923 -0.55604606117384059 -0.50048923442199666 -0.6208623590509923 -0.6208623590509923 -0.4892042539880283 -0.6208623590509923
leaf_weight=2.6109291911125201 4.509786784648897 5.6965727806091362 2.3735719919204703 2.8482863903045645 4.5097867846488944 4.5097867846488944 3.560357987880705 4.5097867846488953 2.3735719919204703 2.3735719919204703 3.0856435894966117 4.0350723862648001 2.6109291911125183 2.3735719919204712 2.3735719919204712 2.3735719919204712 17.801789939403534 2.6109291911125183 9.7316451668739301 25.871934711933136 2.8482863903045645 2.6109291911125183 3.7977151870727539 2.3735719919204712 3.797715187072753 3.0856435894966179 3.3230007886886588 3.5603579878807059 2.6109291911125183 3.7977151870727539 4.2724295854568481
leaf_count=11 19 24 10 12 19 19 15 19 10 10 13 17 11 10 10 10 75 11 41 109 12 11 16 10 16 13 14 15 11 16 18
internal_value=0 1.64833 -0.872407 0.722877 1.01985 -1.0811 0.0751845 -0.393677 -1.1288 -1.17994 -1.25119 1.42505 1.17589 0.574028 0.473717 -0.545571 2.34241 -0.228459 -1.29641 -1.23428 2.06436 0.192847 2.23865 1.97838 -1.2751 -1.2459 -1.10013 -1.22882 -1.12434 -0.852616 -1.361
internal_weight=0 51.5065 97.3165 22.0742 19.2259 79.752 17.5644 8.07014 77.3784 72.8687 65.5106 14.7161 10.6811 4.9845 9.49429 7.35807 29.4323 4.9845 62.4249 52.6933 11.6305 7.12072 8.78222 4.9845 50.3197 46.522 20.6501 17.3271 13.7667 6.40864 7.35807
internal_count=627 217 410 93 81 336 74 34 326 307 276 62 45 21 40 31 124 21 263 222 49 30 37 21 212 196 87 73 58 27 31
shrinkage=1


Tree=1
num_leaves=32
num_cat=0
split_feature=2 5 6 1 0 0 5 7 0 0 1 1 1 0 6 1 1 0 1 1 0 0 0 1 1 0 0 0 1 0 1
split_gain=171.34 24.6377 16.3749 10.5886 7.99646 5.01824 2.84998 2.89305 2.65664 4.92369 2.3784 1.7996 2.56287 3.1553 1.74604 1.3487 1.19088 1.63363 1.08117 1.03276 0.805803 0.569099 1.46523 0.479866 0.704676 1.56209 0.66305 0.785325 2.35182 0.684618 0.645823
threshold=1.0000000180025095e-35 1.5000000000000002 4.5000000000000009 24.808350000000001 28.250000000000004 3.5000000000000004 1.0000000180025095e-35 1.0000000180025095e-35 36.500000000000007 47.500000000000007 56.197900000000011 15.372900000000001 7.883350000000001 21.500000000000004 2.5000000000000004 13.825000000000001 17.600000000000005 17.500000000000004 29.850000000000005 39.906250000000007 37.500000000000007 27.500000000000004 22.500000000000004 13.208350000000001 7.910400000000001 38.500000000000007 31.500000000000004 26.500000000000004 8.0812500000000025 20.250000000000004 7.883350000000001
decision_type=2 2 2 2 2 2 2 2 2 2 2 2 2 2 2 2 2 2 2 2 2 2 2 2 2 2 2 2 2 2 2
left_child=1 18 8 4 11 -4 -7 15 14 -10 16 12 -3 -14 19 -8 17 -9 20 -2 21 22 -1 24 30 26 27 29 -29 -26 -19
right_child=2 3 5 -5 -6 6 7 10 9 -11 -12 -13 13 -15 -16 -17 -18 23 -20 -21 -22 -23 -24 -25 25 -27 -28 28 -30 -31 -32
leaf_value=0.22208611131344985 0.067450821306354089 0.14822105739678637 0.042181108231957899 -0.11939336525825715 -0.027415696229619597 -0.027415696229619597 -0.086783553492609619 -0.033503662054632281 -0.12620048659308192 0.032386671330809323 -0.030535098193375371 0.18049709093319974 0.12514165621207815 -0.033503662054632274 0.11531877133381518 0.00047518895576391168 -0.15374807645134742 -0.11797627349993514 0.21738417953353042 -0.011518420548201243 0.13330471493784474 0.22208611131345002 0.11531877133381518 -0.15374807645134742 -0.090928189185787045 -0.039030198909802756 -0.15374807645134742 -0.15374807645134736 -0.028682292664382894 -0.15374807645134736 -0.15522215527112465
leaf_weight=2.7228026092052477 2.6061590015888232 5.8778475522995048 2.3977108299732199 2.7567003965377799 4.4782557636499396 4.4782557636499396 4.1870735585689536 2.3532049357891074 3.4389527142047873 4.5453115254640579 3.061562091112136 4.1847354620695105 2.6831222772598267 2.3532049357891083 2.4347569048404694 3.0701370239257812 9.3223927468061429 18.794024109840397 18.554050102829933 4.5428737103939056 2.9313508272171012 3.9604401588439941 2.4347569048404694 3.6380069255828849 3.011185705661779 3.2896576523780814 3.4106314927339545 2.5011297613382339 3.7699110507965088 4.0927577912807465 6.188276231288909
leaf_count=11 11 24 10 12 19 19 18 10 15 19 13 17 11 10 10 13 41 82 75 19 12 16 10 16 13 14 15 11 16 18 27
internal_value=0 1.43958 -0.804904 0.640989 0.899368 -1.00235 -1.04778 -1.09679 0.0668509 -0.359194 -1.16521 1.24743 1.03366 0.510152 0.421789 -0.498691 -1.20882 -1.1488 2.02237 0.172696 1.78913 1.93576 1.71684 -1.18813 -1.15992 -1.02041 -1.1439 -1.04354 -0.785633 -1.2712 -1.27202
internal_weight=0 52.9373 95.134 22.3339 19.5772 77.5659 75.1682 70.69 17.5681 7.98426 63.4327 15.0989 10.9142 5.03633 9.58379 7.25721 60.3712 51.0488 30.6034 7.14903 12.0494 9.118 5.15756 48.6956 45.0576 20.0753 16.7856 13.375 6.27104 7.10394 24.9823
internal_count=627 217 410 93 81 336 326 307 74 34 276 62 45 21 40 31 263 222 124 30 49 37 21 212 196 87 73 58 27 31 109
shrinkage=0.1


Tree=2
num_leaves=32
num_cat=0
split_feature=2 5 6 1 0 0 5 7 1 0 0 1 1 1 1 0 0 1 1 1 1 0 1 0 3 0 0 8 1 1 0
split_gain=139.545 19.448 14.0261 8.62937 6.34473 2.81668 2.53799 2.63055 2.15516 1.82199 4.16899 1.52032 2.41199 1.41893 2.00408 2.50621 1.34172 1.11406 1.03935 0.978914 0.882042 0.667305 0.563105 0.717927 0.442892 0.652724 0.395677 0.372777 0.331744 0.908668 0.471611
threshold=1.0000000180025095e-35 1.5000000000000002 6.5000000000000009 24.808350000000001 28.250000000000004 6.5000000000000009 1.0000000180025095e-35 1.0000000180025095e-35 56.197900000000011 36.500000000000007 47.500000000000007 26.266650000000002 39.906250000000007 15.372900000000001 7.883350000000001 21.500000000000004 28.250000000000004 90.539600000000021 7.883350000000001 17.600000000000005 29.850000000000005 23.500000000000004 7.7375000000000007 27.500000000000004 1.0000000180025095e-35 26.500000000000004 21.500000000000004 1.0000000180025095e-35 7.910400000000001 7.883350000000001 38.500000000000007
decision_type=2 2 2 2 2 2 2 2 2 2 2 2 2 2 2 2 2 2 2 2 2 2 2 2 2 2 2 2 2 2 2
left_child=1 20 9 4 13 -4 -7 16 19 11 -11 -2 -13 14 -3 -16 18 -14 -8 22 21 -1 23 -9 25 26 -24 -23 29 -27 -30
right_child=2 3 5 -5 -6 6 7 8 -10 10 -12 12 17 -15 15 -17 -18 -19 -20 -21 -22 27 24 -25 -26 28 -28 -29 30 -31 -32
leaf_value=0.19989029351214038 -0.039902205705100273 0.13118763019590218 4.5955608588315949e-05 -0.11175210375082401 -0.024850046287838188 -0.024850046287838188 -0.065585523899919146 -0.093323734564988048 -0.027701960861088001 -0.1184612324978631 0.028949413949566384 0.12923260317672799 -0.029643131991040329 0.15998916978748276 0.11077100952609908 -0.030421080089589731 -0.10918027038719012 0.060282514991914352 0.026853476672389645 -0.14608832791680981 0.19345284851572847 0.16624297092497226 -0.11034860539250223 -0.14907686723607957 -0.071358982529743237 -0.08115104323729308 -0.14698063175088086 0.1259752495856474 -0.099138228320140742 -0.14728258075595357 -0.058678284621974885
leaf_weight=2.996898606419566 2.3669909834861782 5.9710671901702934 3.0567160546779624 2.6559365987777701 4.4481995254755011 4.4481995254755011 2.2720263898372641 3.5457929968833906 3.0384685397148123 3.3042696118354788 4.5748221874237061 2.664512634277342 2.8793327808380127 4.2450002282857886 2.7255060225725174 2.333562821149826 2.2662940323352814 2.6415197402238846 2.6177481114864349 8.2062267363071424 18.749301508069038 4.4759078621864301 7.1857904493808729 6.6248734295368195 3.9287984520196906 4.4165822863578814 5.0005524158477783 4.7268413305282593 9.5740824490785581 3.9234752655029297 4.1209825575351706
leaf_count=12 10 24 13 12 19 19 10 16 13 15 19 11 12 17 11 10 10 11 11 38 75 18 32 30 18 20 23 19 43 18 18
internal_value=0 1.28483 -0.745624 0.574664 0.802534 -0.939501 -0.979872 -1.02863 -1.09745 0.0351515 -0.328705 0.306831 0.510945 1.1086 0.919524 0.456443 -0.455768 0.133829 -0.160982 -1.14155 1.79835 1.58907 -1.08732 -1.2964 -1.03158 -1.06809 -1.2538 1.4556 -0.965386 -1.12262 -0.869634
internal_weight=0 53.3282 92.6581 22.3793 19.7233 74.2266 71.1699 66.7217 59.5656 18.4314 7.87909 10.5524 8.18537 15.2751 11.0301 5.05907 7.15607 5.52085 4.88977 56.5272 30.9489 12.1996 48.3209 10.1707 38.1503 34.2215 12.1863 9.20275 22.0351 8.34006 13.6951
internal_count=627 217 410 93 81 332 319 300 269 78 34 44 34 62 45 21 31 23 21 256 124 49 218 46 172 154 55 37 99 38 61
shrinkage=0.1


Tree=3
num_leaves=32
num_cat=0
split_feature=2 5 6 1 0 0 5 7 1 1 1 0 7 1 1 1 0 0 1 1 0 1 0 1 1 0 0 1 1 0 0
split_gain=114.878 15.9363 12.05 7.08942 5.11157 2.49127 2.30186 2.43387 1.98892 1.5002 2.28087 2.24978 1.88669 1.32552 1.16394 1.60334 2.01063 1.1527 0.858181 0.792594 0.634551 0.622405 1.02425 1.23135 0.706776 0.688423 0.640578 2.19635 0.931814 0.559088 1.16645
threshold=1.0000000180025095e-35 1.5000000000000002 6.5000000000000009 24.808350000000001 28.250000000000004 9.5000000000000018 1.0000000180025095e-35 1.0000000180025095e-35 56.197900000000011 25.527100000000001 31.854150000000001 36.500000000000007 1.5000000000000002 13.208350000000001 15.372900000000001 7.883350000000001 21.500000000000004 28.250000000000004 7.883350000000001 29.850000000000005 37.500000000000007 7.7625000000000011 38.500000000000007 7.883350000000001 7.910400000000001 31.500000000000004 26.500000000000004 8.0812500000000025 8.0812500000000025 27.500000000000004 22.500000000000004
decision_type=2 2 2 2 2 2 2 2 2 2 2 2 2 2 2 2 2 2 2 2 2 2 2 2 2 2 2 2 2 2 2
left_child=1 19 9 4 14 -4 -7 17 13 -2 -11 -12 -13 21 15 -3 -17 18 -8 20 29 -9 23 -23 -25 26 28 -28 -26 30 -1
right_child=2 3 5 -5 -6 6 7 8 -10 10 11 12 -14 -15 -16 16 -18 -19 -20 -21 -22 22 -24 24 25 -27 27 -29 -30 -31 -32
leaf_value=0.18005790692650342 -0.072617615865831514 0.11746048681585175 -0.012010999989519225 -0.10496938087463124 -0.022516752260671111 -0.022516752260671111 -0.060334158731591508 -0.11966540862708781 -0.025123082388509379 0.069983029088165324 0.029835541516587655 0.0045837942293520516 -0.11798944098035441 -0.14083124026748461 0.14411140202822023 0.098911996463181218 -0.027612888175007757 -0.10205575338751212 0.024023101009922054 0.17602080221708052 0.10325352308376289 -0.050598985749158679 -0.043253821452722725 -0.14093032230544289 -0.051397404174288189 -0.14181760182870393 -0.14173839280892184 -0.016674955824253251 -0.12841563602354522 0.18450140467777659 0.085379557860667712
leaf_weight=2.716267406940462 2.2900508344173458 5.9999059438705498 4.1003591418266288 2.5503321290016165 4.4197862446308127 4.4197862446308127 2.2253097593784323 12.476656913757322 3.0165306925773612 4.9959583133459118 6.0246441364288312 2.3582393229007721 2.6861469894647598 10.28697147965431 4.2411431819200507 2.7457628548145294 2.3148190975189209 2.1862553358078003 2.6327072083950043 18.553120270371437 2.998953402042388 4.2605635076761308 3.624961405992507 5.3578219860792187 2.1317634135484713 3.1187434941530219 2.2853536754846564 3.6421971321105957 5.9704345762729645 3.9713013172149658 2.4979121088981628
leaf_count=11 10 24 18 12 19 19 10 59 13 21 25 10 12 50 17 11 10 10 11 75 12 20 16 26 10 15 11 16 28 16 10
internal_value=0 1.16335 -0.69198 0.51922 0.722108 -0.876975 -0.922859 -0.971639 -1.04112 0.0310299 0.138969 -0.114173 -0.606867 -1.08595 0.995723 0.824938 0.410368 -0.417554 -0.146184 1.63008 1.43192 -1.00859 -0.93139 -0.998948 -1.09227 -0.993214 -0.898747 -0.648929 -1.08151 1.56232 1.34701
internal_weight=0 53.0093 90.0915 22.2717 19.7214 71.7364 67.6361 63.2163 56.172 18.355 16.065 11.069 5.04439 53.1555 15.3016 11.0605 5.06058 7.04427 4.85802 30.7376 12.1844 42.8685 30.3918 26.7669 22.5063 17.1485 14.0297 5.92755 8.1022 9.18548 5.21418
internal_count=627 217 410 93 81 332 314 295 264 78 68 47 22 251 62 45 21 31 21 124 49 201 142 126 106 80 65 27 38 37 21
shrinkage=0.1


Tree=4
num_leaves=32
num_cat=0
split_feature=2 5 6 1 0 0 5 7 1 0 0 0 8 0 1 1 0 1 1 1 0 1 0 0 0 3 0 0 4 1 1
split_gain=95.3642 13.4577 10.4133 5.85799 4.16328 2.21389 2.02039 2.13452 1.7551 1.27279 3.42291 1.33384 1.21268 0.993746 0.981517 1.30394 1.62468 0.961089 0.735738 0.708802 0.570081 0.502698 0.722067 0.492079 1.04163 0.44321 0.596528 0.410892 0.290322 0.287738 0.834189
threshold=1.0000000180025095e-35 1.5000000000000002 6.5000000000000009 24.808350000000001 28.250000000000004 6.5000000000000009 1.0000000180025095e-35 1.0000000180025095e-35 56.197900000000011 36.500000000000007 47.500000000000007 31.500000000000004 1.0000000180025095e-35 28.250000000000004 15.372900000000001 7.883350000000001 21.500000000000004 17.600000000000005 29.850000000000005 7.883350000000001 37.500000000000007 7.7375000000000007 27.500000000000004 27.500000000000004 22.500000000000004 1.0000000180025095e-35 26.500000000000004 21.500000000000004 1.5000000000000002 7.910400000000001 7.883350000000001
decision_type=2 2 2 2 2 2 2 2 2 2 2 2 2 2 2 2 2 2 2 2 2 2 2 2 2 2 2 2 2 2 2
left_child=1 18 9 4 14 -4 -7 13 17 11 -11 12 -2 19 15 -3 -17 21 20 -8 23 22 -9 24 -1 26 27 -23 -20 30 -28
right_child=2 3 5 -5 -6 6 7 8 -10 10 -12 -13 -14 -15 -16 16 -18 -19 28 -21 -22 25 -24 -25 -26 -27 29 -29 -30 -31 -32
leaf_value=0.16686611170535481 0.047034907227563399 0.10604100790092424 0.0012442423870525406 -0.09884619541483386 -0.020394941630558945 -0.020394941630558945 -0.055505060770887897 -0.079010501240857178 -0.022775492596753603 -0.10936828111276703 0.026624784283882891 0.086284517514973583 -0.031398564081256151 -0.095635157767440804 0.13130529690471873 0.088881713672116017 -0.025054062909673765 -0.13512045922530591 0.16827107876698144 0.021511343371110346 0.093022058314010059 -0.097200960541875395 -0.13751143645477562 0.17026708785121478 0.076802984632703492 -0.057530041980969816 -0.069292962045211945 -0.1363421756513658 0.13370891317486566 -0.075088824714169153 -0.13565386130167537
leaf_weight=2.6415720283985156 3.6452210843563098 5.9820370674133354 3.0483082085847846 2.4431169033050528 4.3931070864200583 4.3931070864200583 2.1794928610324851 3.2686716169118863 2.9958488941192618 3.1021296828985205 4.5883098244667053 2.6736726313829422 4.2926302999258041 2.1040578782558441 4.1916257590055457 2.7497147917747498 2.2970835864543915 7.303175836801528 15.190019935369493 2.6453884690999985 2.9959459900856009 6.6590657681226748 5.9512370824813843 3.8774819374084473 2.4990220665931702 3.6455427259206763 4.1478154659271267 4.4906516373157501 2.8933371305465689 12.853431552648543 3.4865163266658783
leaf_count=11 15 24 13 12 19 19 10 16 13 15 19 11 18 10 17 11 10 38 63 11 12 32 30 16 10 18 20 23 12 61 18
internal_value=0 1.06511 -0.643307 0.471731 0.653616 -0.820782 -0.859194 -0.905824 -0.971945 0.0274588 -0.282314 0.251959 0.0461966 -0.382871 0.901137 0.744584 0.370231 -1.01498 1.49997 -0.132785 1.30815 -0.959803 -1.16771 1.43371 1.23083 -0.905473 -0.943519 -1.12965 1.62741 -0.842221 -0.995993
internal_weight=0 52.1541 87.4743 22.0567 19.6136 69.1723 66.124 61.7309 54.802 18.302 7.69044 10.6115 7.93785 6.92894 15.2205 11.0288 5.0468 51.8061 30.0974 4.82488 12.014 44.5029 9.21991 9.01808 5.14059 35.283 31.6375 11.1497 18.0834 20.4878 7.63433
internal_count=627 217 410 93 81 332 319 300 269 78 34 44 33 31 62 45 21 256 124 21 49 218 46 37 21 172 154 55 75 99 38
shrinkage=0.1


Tree=5
num_leaves=32
num_cat=0
split_feature=2 5 6 1 0 0 5 7 6 1 1 7 1 1 1 1 0 1 1 7 1 1 0 1 1 0 0 0 0 0 8
split_gain=79.6073 11.6057 8.99721 4.96708 3.26762 2.92223 1.80702 1.91349 1.71586 3.34216 1.58667 2.89016 1.57584 1.34994 1.17991 1.16398 1.57346 0.889386 0.70593 0.669228 0.568388 0.627223 0.965794 1.20284 0.979044 0.93663 1.85283 0.545552 0.369971 0.354921 0.327004
threshold=1.0000000180025095e-35 1.5000000000000002 4.5000000000000009 23.125000000000004 3.5000000000000004 28.250000000000004 1.0000000180025095e-35 1.0000000180025095e-35 3.5000000000000004 29.412500000000005 39.906250000000007 1.0000000180025095e-35 56.197900000000011 15.372900000000001 9.8437500000000018 17.600000000000005 17.500000000000004 15.147900000000002 29.850000000000005 1.5000000000000002 13.208350000000001 7.7625000000000011 38.500000000000007 7.883350000000001 8.0812500000000025 26.500000000000004 29.500000000000004 23.500000000000004 27.500000000000004 23.500000000000004 1.0000000180025095e-35
decision_type=2 2 2 2 2 2 2 2 2 2 2 2 2 2 2 2 2 2 2 2 2 2 2 2 2 2 2 2 2 2 2
left_child=1 18 8 5 -4 13 -6 17 9 -2 -11 -12 15 14 19 16 -9 -8 27 -3 21 28 23 -23 29 -26 -27 -1 -18 -25 -29
right_child=2 3 4 -5 6 -7 7 12 -10 10 11 -13 -14 -15 -16 -17 20 -19 -20 -21 -22 22 -24 24 25 26 -28 30 -30 -31 -32
leaf_value=0.15920778648412925 -0.12012667407744451 0.11316297695789237 0.037846353219774018 -0.070140080096855614 -0.018465910163719155 -0.010834996740808072 -0.06074851910871161 -0.0056611019788911114 0.076043800047035551 0.070531010228547089 0.044679252878329523 -0.069150378673881976 -0.020638741310278982 0.13975296669091705 0.012884563511615786 -0.13197321750929764 -0.083594036462223575 0.015816355721368646 0.1522861008346427 0.055161726354902588 -0.13495850779873092 -0.039476524052224418 -0.032646345645383996 -0.084171531726891707 -0.11136223337291602 0.015276666237452561 -0.10404743843634456 0.12824043472567029 -0.12171820183738569 -0.13221257675576789 0.090017425098860016
leaf_weight=2.7872264981269863 2.2956907302141216 4.4481174945831352 2.4159839898347846 3.2919054925441733 4.3681971579790106 4.1382920444011679 4.5326602458953849 2.1418860703706732 2.803102731704711 3.3073287159204474 4.5971886217594129 4.3328261971473694 2.9764738976955405 3.3848774135112754 2.9062113761901847 7.4660716056823722 3.7416307628154737 2.2804704308509827 17.425934359431267 3.5987230539321899 3.0705896615982047 4.0252086073160234 3.4812823683023444 1.9313176870346083 4.3544883579015714 2.4316007494926453 2.7994801998138428 4.3450111448764783 7.9622340053319931 7.5478125512599945 4.6160841733217239
leaf_count=12 10 18 10 16 19 18 21 10 12 14 19 19 13 14 12 41 19 10 75 15 16 20 16 10 23 11 14 18 42 41 19
internal_value=0 0.982844 -0.598534 0.430277 -0.763513 0.631908 -0.805887 -0.850561 0.0440909 -0.0940768 0.113629 -0.105507 -0.913645 0.845566 0.674989 -0.95496 -0.892334 -0.35121 1.39514 0.872235 -0.935629 -0.902419 -0.81746 -0.891488 -0.996363 -0.771011 -0.485812 1.20569 -1.0953 -1.22424 1.08551
internal_weight=0 50.9424 84.8635 21.7681 67.5274 18.4762 65.1114 60.7432 17.3361 14.533 12.2373 8.93001 53.9301 14.3379 10.9531 50.9536 43.4875 6.81313 29.1743 8.04684 41.3456 38.2751 26.5712 23.0899 19.0647 9.58557 5.23108 11.7483 11.7039 9.47913 8.9611
internal_count=627 217 410 93 336 77 326 307 74 62 52 38 276 59 45 263 222 31 124 33 212 196 135 119 99 48 25 49 61 51 37
shrinkage=0.1


Tree=6
num_leaves=32
num_cat=0
split_feature=2 5 6 1 0 0 5 7 1 1 0 0 4 0 1 1 1 1 3 7 0 0 0 1 1 0 0 0 1 0 1
split_gain=66.6383 10.1918 7.82045 4.16807 2.86569 1.86345 1.67461 1.84205 1.50702 1.31491 1.18099 2.7044 1.12285 0.889295 0.832685 0.792701 0.972285 0.70935 0.607583 0.576525 0.533283 0.531186 0.994208 0.52916 0.501126 1.28398 0.539371 0.844471 1.90631 0.555694 0.511708
threshold=1.0000000180025095e-35 1.5000000000000002 6.5000000000000009 24.808350000000001 28.250000000000004 9.5000000000000018 1.0000000180025095e-35 1.0000000180025095e-35 56.197900000000011 13.208350000000001 36.500000000000007 47.500000000000007 1.0000000180025095e-35 28.250000000000004 29.412500000000005 15.372900000000001 9.8437500000000018 29.850000000000005 1.0000000180025095e-35 1.5000000000000002 37.500000000000007 27.500000000000004 22.500000000000004 7.883350000000001 7.910400000000001 38.500000000000007 31.500000000000004 26.500000000000004 8.0812500000000025 19.500000000000004 7.883350000000001
decision_type=2 2 2 2 2 2 2 2 2 2 2 2 2 2 2 2 2 2 2 2 2 2 2 2 2 2 2 2 2 2 2
left_child=1 17 10 4 15 -4 -7 13 9 18 12 -12 14 23 -2 16 19 20 24 -3 21 22 -1 -8 30 26 27 29 -29 -26 -9
right_child=2 3 5 -5 -6 6 7 8 -10 -11 11 -13 -14 -15 -16 -17 -18 -19 -20 -21 -22 -23 -24 -25 25 -27 -28 28 -30 -31 -32
leaf_value=0.14826074061203878 -0.036643159161456156 0.10349851940666528 -0.0057378534598849004 -0.089320034010807708 -0.017144656890620311 -0.016712765160535537 -0.046138704057465535 -0.089127322172122853 -0.018694512974399231 -0.12785483262724193 -0.10302406184144075 0.019665740354715758 0.079343092553831276 -0.088084705261036206 0.030315624085559535 0.1130578060383364 0.011587806654908397 0.14382151125388973 -0.029151932331063491 0.049515531028910903 0.074821146236003527 0.15319023872233023 0.057995987785716664 0.02123344217826955 -0.071300139949003069 -0.016188525322667201 -0.12998200358402295 -0.12944081033976271 -0.0057634407210160133 -0.12994027851942977 -0.12773207323324637
leaf_weight=2.4150957167148608 3.0086298286914843 4.3805746436119133 3.9654519259929648 2.2587187886238089 4.3506134003400794 4.3450479656457892 2.0845717191696158 13.696238636970522 2.9584177136421195 8.4959034621715528 2.9351982027292243 4.6315422356128693 2.7091070115566254 1.9940477013587947 4.8529699444770813 4.018497869372367 2.9081824421882629 16.646382182836533 1.8969918936491001 3.6076314747333527 2.9462687373161307 3.6241377592086792 2.4663521498441696 2.6450734585523605 2.9824255704879779 3.0514187216758719 2.484137386083602 1.9328581094741821 3.508454829454422 3.5272359848022461 4.5822618603706351
leaf_count=11 13 18 18 12 19 19 10 74 13 50 15 19 11 10 20 17 12 75 10 15 12 16 10 11 15 14 14 11 16 20 27
internal_value=0 0.909777 -0.55744 0.391977 0.542653 -0.721361 -0.76511 -0.81164 -0.87884 -0.923186 0.0223354 -0.279266 0.238228 -0.320747 0.0469054 0.750954 0.610951 1.30643 -0.843022 0.791187 1.11487 1.24187 1.02654 -0.0846056 -0.872274 -0.751253 -0.875838 -0.787709 -0.49696 -1.03074 -0.988052
internal_weight=0 49.6225 82.288 21.5242 19.2655 64.1505 60.1851 55.84 49.1163 46.1579 18.1374 7.56674 10.5707 6.72369 7.8616 14.9149 10.8964 28.0982 37.662 7.98821 11.4519 8.50559 4.88145 4.72965 35.765 17.4865 14.4351 11.951 5.44131 6.50966 18.2785
internal_count=627 217 410 93 81 332 314 295 264 251 78 34 44 31 33 62 45 124 201 33 49 37 21 21 191 90 76 62 27 35 101
shrinkage=0.1


Tree=7
num_leaves=32
num_cat=0
split_feature=2 5 6 1 0 0 5 7 1 1 1 0 1 1 7 1 0 1 1 0 1 1 0 0 7 0 1 1 1 0 1
split_gain=56.0021 9.05708 6.77142 3.56652 1.96974 1.65349 1.51086 1.67939 1.38039 1.30337 1.10405 1.06575 1.35378 2.03611 1.9148 0.8061 0.766921 0.706163 0.561947 0.769956 1.11315 0.662868 0.691709 0.532293 0.501619 0.480863 1.7285 0.981664 0.435624 0.413481 0.387205
threshold=1.0000000180025095e-35 1.5000000000000002 6.5000000000000009 23.125000000000004 28.250000000000004 9.5000000000000018 1.0000000180025095e-35 1.0000000180025095e-35 56.197900000000011 13.208350000000001 15.372900000000001 49.500000000000007 26.266650000000002 36.252100000000006 1.0000000180025095e-35 9.8437500000000018 28.250000000000004 29.850000000000005 7.7625000000000011 38.500000000000007 7.883350000000001 7.910400000000001 31.500000000000004 23.500000000000004 1.5000000000000002 26.500000000000004 8.0812500000000025 8.0812500000000025 7.883350000000001 27.500000000000004 64.179150000000007
decision_type=2 2 2 2 2 2 2 2 2 2 2 2 2 2 2 2 2 2 2 2 2 2 2 2 2 2 2 2 2 2 2
left_child=1 17 11 4 10 -4 -7 16 9 18 15 12 -2 -14 -15 24 28 23 29 20 -20 -22 25 -1 -3 27 -27 -23 -8 -9 -16
right_child=2 3 5 -5 -6 6 7 8 -10 -11 -12 -13 13 14 30 -17 -18 -19 19 -21 21 22 -24 -25 -26 26 -28 -29 -30 -31 -32
leaf_value=0.14424928461767922 -0.049213872917141945 0.095075797400002243 -0.0051731688944432778 -0.06326701433876232 -0.0081138256197381183 -0.015120152615888966 -0.042376523023775564 -0.070127146475975982 -0.01692618393108505 -0.12451666319814669 0.1224140146450355 -0.050579222438344423 0.088988609200848862 0.051145840179199778 -0.014827212934005836 0.010423024662811458 -0.082772854308945418 0.13682206744766573 -0.029195529577500819 -0.027439290491743887 -0.12421020705468039 -0.023925066432843707 -0.12658372667987403 0.09199383249448588 0.04451345608078057 -0.12586629060578208 -0.0051981652124621575 -0.10974905563978291 0.019029899098590066 -0.11328182252613427 -0.0742608064834408
leaf_weight=2.5241678655147579 2.8144984692335155 4.296187520027166 3.9588422477245322 3.100716069340705 4.1048575043678275 4.3236207216978064 2.0448295772075644 3.2638889253139478 2.9416648447513571 7.8827984929084769 3.1844716668128958 3.1786261647939673 3.7476930767297736 3.8996322602033597 2.1476151198148727 2.9097671508789062 1.9140453636646269 15.792185649275778 3.8018996119499269 3.4022220969200125 4.0766949802637127 1.8311460167169551 2.4866330176591864 8.5598668456077558 3.6114756166934967 1.7960071712732313 3.5013743489980698 4.8965015709400177 2.6556274592876434 6.9435468763113022 2.2389523684978485
leaf_count=12 13 18 18 16 18 19 10 18 13 50 14 13 16 16 10 12 10 75 20 16 26 10 15 37 15 11 16 28 11 41 10
internal_value=0 0.846894 -0.519457 0.358315 0.528018 -0.676936 -0.719785 -0.765788 -0.832416 -0.876871 0.706601 0.0197246 0.132223 0.278249 0.00161765 0.554246 -0.294123 1.23242 -0.796226 -0.717628 -0.784979 -0.885817 -0.785728 1.03894 0.719837 -0.686447 -0.461091 -0.863893 -0.076836 -0.994829 -0.451628
internal_weight=0 48.0837 79.7484 21.2075 18.1068 61.7213 57.7625 53.4389 46.8244 43.8827 14.0019 18.027 14.8484 12.0339 8.2862 10.8174 6.6145 26.8762 35.9999 25.7925 22.3903 18.5884 14.5117 11.084 7.90766 12.025 5.29738 6.72765 4.70046 10.2074 4.38657
internal_count=627 217 410 93 77 332 314 295 264 251 59 78 65 52 36 45 31 124 201 142 126 106 80 49 33 65 27 38 21 59 20
shrinkage=0.1


Tree=8
num_leaves=32
num_cat=0
split_feature=2 5 6 1 0 3 0 1 7 5 1 1 1 6 1 6 1 1 1 7 1 0 1 0 0 1 0 1 7 0 0
split_gain=47.0964 8.10027 5.87965 2.9898 2.00184 1.7781 4.10243 2.1549 1.72601 2.45781 1.85191 2.11667 1.09442 0.9769 2.55192 1.23216 4.42881 1.03936 0.727672 0.674873 1.52713 0.665111 0.544453 0.946683 0.528159 0.521526 1.16124 1.02311 0.729407 0.561105 1.37564
threshold=1.0000000180025095e-35 1.5000000000000002 6.5000000000000009 24.808350000000001 28.250000000000004 2.5000000000000004 16.500000000000004 56.197900000000011 1.0000000180025095e-35 1.0000000180025095e-35 21.037500000000005 7.883350000000001 13.208350000000001 3.5000000000000004 29.412500000000005 1.5000000000000002 77.008350000000021 56.712500000000013 29.850000000000005 1.5000000000000002 15.372900000000001 18.500000000000004 7.7375000000000007 27.500000000000004 23.500000000000004 7.883350000000001 38.500000000000007 8.0812500000000025 1.5000000000000002 26.500000000000004 29.500000000000004
decision_type=2 2 2 2 2 2 2 2 2 2 2 2 2 2 2 2 2 2 2 2 2 2 2 2 2 2 2 2 2 2 2
left_child=1 18 13 4 19 6 -4 8 10 -10 11 -8 21 14 -2 17 -17 -16 24 20 -3 -11 23 -23 -1 28 27 -27 -24 -29 -31
right_child=2 3 5 -5 -6 -7 7 -9 9 12 -12 -13 -14 -15 15 16 -18 -19 -20 -21 -22 22 25 -25 -26 26 -28 29 -30 30 -32
leaf_value=0.13837324613883559 -0.10964070636799626 0.055560899357835938 0.057131027534456993 -0.080873021686305543 -0.014469071804409409 -0.12485987398215058 -0.056646637788902846 0.018192565418175991 0.023501879956940842 -0.13214705609439856 -0.10255808066880852 0.072867974053460849 -0.12181901883891787 0.048143616861543843 -0.0068258735502123823 0.057391783286844814 -0.10600691252540309 0.080701008171761957 0.13092458505331991 0.038745449024322948 0.15263616758152068 -0.046699791292484742 -0.082453126598114712 -0.12369203885374883 0.084939109060781212 -0.11053899136686787 -0.018343439064402663 -0.092596543672913978 -0.0076235679290897508 0.014823121554502598 -0.091375599235314353
leaf_weight=2.3758507072925594 2.1786754727363613 5.905348896980291 2.8989935219287863 2.0848111510276786 4.3141089379787436 4.3791336715221396 2.5167609006166449 2.931890904903411 2.2651869058609 2.0102579295635215 2.148776963353157 2.5307694524526596 6.3012855201959601 3.623348504304885 2.3942247927188856 3.4514709711074829 3.1936719566583633 3.130720853805542 14.899273887276648 6.3721304237842551 2.2334295809268951 2.433735370635989 2.2056131511926678 4.645217552781105 8.3546064198017103 7.7501008510589626 3.1747425198554984 3.1339056789875013 3.1818295866250992 2.4351637214422226 2.4438130259513855
leaf_count=12 10 25 14 12 19 22 13 13 10 11 10 11 43 16 10 15 14 13 75 27 10 14 13 30 37 51 15 20 17 11 14
internal_value=0 0.789423 -0.483669 0.327537 0.453375 -0.63533 -0.586508 -0.650921 -0.700575 -0.77814 -0.248083 0.0829039 -0.835926 0.0174793 -0.099679 0.0787541 -0.21138 0.427714 1.16625 0.63118 0.822001 -0.763838 -0.728143 -0.972222 0.967701 -0.657113 -0.73521 -0.846341 -0.382587 -0.595787 -0.383704
internal_weight=0 46.5396 77.3593 20.9098 18.825 59.3872 55.008 52.1091 49.1772 41.9809 7.19631 5.04753 39.7157 17.9721 14.3488 12.1701 6.64514 5.52495 25.6297 14.5109 8.13878 33.4144 31.4041 7.07895 10.7305 24.3252 18.9377 15.763 5.38744 8.01288 4.87898
internal_count=627 217 410 93 81 332 310 296 283 249 34 24 239 78 62 52 29 23 124 62 35 196 185 44 49 141 111 96 30 45 25
shrinkage=0.1


Tree=9
num_leaves=32
num_cat=0
split_feature=2 5 6 1 0 3 1 1 1 4 0 6 1 1 7 1 1 7 1 1 1 1 1 1 0 0 0 0 7 0 0
split_gain=39.6695 7.28601 5.13563 2.60831 2.47494 1.36858 1.81395 1.46092 3.34763 2.53856 1.34176 1.30183 2.14897 1.09503 1.82867 0.964668 0.920542 0.768015 0.752179 0.685096 0.631165 0.670429 1.07284 0.86432 0.782518 0.545198 0.638801 0.996545 0.428126 0.405787 0.35314
threshold=1.0000000180025095e-35 1.5000000000000002 4.5000000000000009 23.125000000000004 3.5000000000000004 2.5000000000000004 56.197900000000011 30.597900000000003 26.468750000000004 1.0000000180025095e-35 28.250000000000004 3.5000000000000004 29.412500000000005 39.906250000000007 1.0000000180025095e-35 14.456250000000002 15.372900000000001 1.0000000180025095e-35 29.850000000000005 9.8437500000000018 7.7625000000000011 7.883350000000001 7.910400000000001 8.3312500000000025 33.500000000000007 37.500000000000007 27.500000000000004 22.500000000000004 1.5000000000000002 23.500000000000004 23.500000000000004
decision_type=2 2 2 2 2 2 2 2 2 2 2 2 2 2 2 2 2 2 2 2 2 2 2 2 2 2 2 2 2 2 2
left_child=1 18 11 10 -4 6 7 8 9 15 16 12 -2 -14 -15 17 19 -6 25 28 30 -22 -23 24 29 26 27 -1 -3 -24 -19
right_child=2 3 4 -5 5 -7 -8 -9 -10 -11 -12 -13 13 14 -16 -17 -18 20 -20 -21 21 22 23 -25 -26 -27 -28 -29 -30 -31 -32
leaf_value=0.1313663284288562 -0.10245173513853023 0.0833375288473997 0.040199941806513796 -0.057592927185132661 -0.022025512663605119 -0.13232750091620024 0.016276500325597406 -0.14244805205897226 0.050442863255658603 0.021331571621842117 -0.0059032096302173908 0.065316077816263501 0.055658015233214377 0.031526633675329173 -0.059786544004637988 -0.11365011508040219 0.10903524460085018 -0.1286445576585683 0.12587225332140461 0.0045088828192390044 -0.024355750402502974 -0.1195454769170093 -0.017374235613661377 -0.077100166176421014 0.024534858161800607 0.052690982650542041 0.13824332255712282 0.035433506635808722 0.03621248044619322 -0.080904511381316255 -0.083321187710441835
leaf_weight=1.9993475228548063 2.1024065911769894 4.1384280323982292 2.3999700397253028 2.9206214547157279 3.3479395955801001 2.7476956397294989 2.9484031200408927 2.2907778918743125 2.5644926577806464 3.0333875864744178 4.0770067870616904 2.8148392736911765 3.3547497242689124 4.656034901738165 4.146113321185112 5.2139573842287055 2.9404896497726432 2.2345151007175428 13.994307115674017 2.9145439267158508 3.6963582187891033 3.6737132370471981 1.7571169137954736 10.445940762758253 1.8545735925436018 2.8062262535095215 3.1991699934005737 2.3621772080659866 3.6090559065341949 2.3500590026378632 7.453020304441452
leaf_count=11 10 18 10 16 17 16 13 12 13 17 18 12 14 19 19 34 14 13 75 12 20 27 10 59 10 12 16 10 15 16 49
internal_value=0 0.737307 -0.450389 0.299543 -0.592272 -0.63518 -0.599415 -0.644435 -0.606915 -0.670164 0.444169 0.0316766 -0.0910067 0.0704341 -0.11485 -0.733931 0.594991 -0.676913 1.10748 0.458375 -0.722598 -0.63494 -0.706981 -0.597611 -0.293802 0.903329 1.04304 0.794097 0.61385 -0.537252 -0.937754
internal_weight=0 44.9614 75.0861 20.6001 58.0119 55.612 52.8643 49.9159 47.6251 45.0606 17.6795 17.0741 14.2593 12.1569 8.80215 42.0272 13.6025 36.8132 24.3612 10.662 33.4653 23.7778 20.0814 16.4077 5.96175 10.3669 7.56069 4.36152 7.74748 4.10718 9.68754
internal_count=627 217 410 93 336 326 310 297 285 272 77 74 62 52 38 255 59 221 124 45 204 142 122 95 36 49 37 21 33 26 62
shrinkage=0.1


Tree=10
num_leaves=32
num_cat=0
split_feature=2 5 6 0 1 0 0 0 0 6 1 8 7 1 1 1 1 1 1 1 0 1 1 0 0 0 0 0 5 4 8
split_gain=33.437 6.60352 4.41195 2.26744 2.1529 1.19851 1.1723 2.20189 1.11993 1.10414 1.00995 3.72084 2.64282 1.11087 0.975969 0.864794 0.833078 0.760999 0.594995 0.887861 0.764494 0.759153 0.584402 0.581754 0.565636 1.24633 0.53669 0.488899 0.383907 0.376515 0.341992
threshold=1.0000000180025095e-35 1.5000000000000002 4.5000000000000009 9.5000000000000018 23.125000000000004 18.500000000000004 36.500000000000007 47.500000000000007 28.250000000000004 2.5000000000000004 26.468750000000004 1.0000000180025095e-35 1.0000000180025095e-35 13.208350000000001 39.906250000000007 7.883350000000001 15.372900000000001 29.850000000000005 7.7625000000000011 7.8125000000000009 38.500000000000007 8.0812500000000025 34.514600000000009 27.500000000000004 26.500000000000004 29.500000000000004 23.500000000000004 27.500000000000004 1.5000000000000002 1.5000000000000002 1.0000000180025095e-35
decision_type=2 2 2 2 2 2 2 2 2 2 2 2 2 2 2 2 2 2 2 2 2 2 2 2 2 2 2 2 2 2 2
left_child=1 17 6 -4 8 -5 9 -8 16 14 12 -12 15 18 -2 -7 23 26 27 -20 21 -21 -13 -3 28 -26 -1 -14 -23 -19 -28
right_child=2 4 3 5 -6 10 7 -9 -10 -11 11 22 13 -15 -16 -17 -18 29 19 20 -22 24 -24 -25 25 -27 30 -29 -30 -31 -32
leaf_value=0.12994373796766373 0.055258945273166674 0.061282568518333295 0.016900385561548652 -0.11004121017045883 -0.053025898807130094 -0.043467350625951057 -0.098143145825104805 0.014860762160036643 -0.0053230945108119834 0.083859062116364513 -0.10731283792330976 0.067892837144780532 -0.052883592176369724 -0.11794676808914202 -0.021735004378324783 0.039018724453070877 0.10299641733805323 0.128947638937189 0.0033034861658449719 -0.095135711818122318 -0.020035843707042082 -0.047885850236220655 -0.0012035757787391464 0.013547452315021819 0.021486355878117935 -0.082562321003204875 0.094569107864313703 -0.10393428908699516 -0.12157039463250252 0.082992177538709133 0.052877266996984196
leaf_weight=2.0837141275405902 2.5745242685079592 6.2278832495212608 4.028897449374198 4.5426477491855612 2.8583256751298896 2.2288119196891776 2.7436074912548056 4.6410565227270126 4.0696025490760794 2.4469719231128693 3.2542076930403692 2.25920669734478 2.7444444149732607 4.7439661100506774 4.5665880292654037 2.957685574889183 2.8085204362869254 10.967986240983008 2.2116370350122478 7.7410470619797724 3.2892823666334143 1.3816651552915573 2.6714867949485779 4.3268245160579681 2.382053405046463 2.227987214922905 3.78172367811203 5.9277660101652145 1.4482486546039581 2.1288621425628653 4.1012181341648102
leaf_count=12 11 26 19 27 16 12 15 19 18 10 18 10 17 37 19 13 14 63 12 56 16 10 12 19 11 14 18 42 10 12 19
internal_value=0 0.69025 -0.418443 -0.553723 0.274167 -0.609706 0.0282304 -0.271233 0.406063 0.258875 -0.562748 -0.243191 -0.629327 -0.730483 0.0602297 0.0357169 0.545935 1.05632 -0.657922 -0.565731 -0.637427 -0.732127 0.304559 0.417139 -0.504025 -0.287993 0.848089 -0.877786 -0.85595 1.21478 0.728783
internal_weight=0 43.3547 73.0138 56.041 20.2912 52.0121 16.9727 7.38466 17.4328 9.58808 47.4695 8.1849 39.2846 34.0981 7.14111 5.1865 13.3632 23.0635 29.3541 20.6819 18.4703 15.181 4.93069 10.5547 7.43995 4.61004 9.96666 8.67221 2.82991 13.0968 7.88294
internal_count=627 217 410 336 93 317 74 34 77 40 290 40 250 225 30 25 59 124 188 129 117 101 22 45 45 25 49 59 20 75 37
shrinkage=0.1


Tree=11
num_leaves=32
num_cat=0
split_feature=2 5 6 1 3 0 1 1 1 7 0 0 3 1 1 1 1 1 1 8 7 1 0 0 1 0 4 1 0 1 1
split_gain=28.1764 5.9985 3.81268 1.86178 1.70143 3.51384 1.65491 1.31345 2.6614 2.22502 1.19709 1.13238 1.0512 1.22137 2.72407 1.01945 0.892385 0.787285 0.709982 0.708932 0.622013 1.43674 0.564662 0.679003 1.16123 0.53549 0.375179 0.364284 0.363102 0.703943 1.07843
threshold=1.0000000180025095e-35 1.5000000000000002 6.5000000000000009 24.808350000000001 2.5000000000000004 16.500000000000004 56.197900000000011 30.597900000000003 26.468750000000004 1.0000000180025095e-35 28.250000000000004 49.500000000000007 1.0000000180025095e-35 26.266650000000002 36.252100000000006 13.208350000000001 7.883350000000001 29.850000000000005 78.112500000000011 1.0000000180025095e-35 1.5000000000000002 15.372900000000001 23.500000000000004 27.500000000000004 7.7375000000000007 23.500000000000004 1.5000000000000002 9.4125000000000014 38.500000000000007 7.883350000000001 8.0812500000000025
decision_type=2 2 2 2 2 2 2 2 2 2 2 2 2 2 2 2 2 2 2 2 2 2 2 2 2 2 2 2 2 2 2
left_child=1 17 11 10 5 -4 7 8 9 16 20 12 13 -2 -15 19 -7 25 -14 -11 21 -3 27 -24 -25 -1 -19 -21 29 -26 -31
right_child=2 3 4 -5 -6 6 -8 -9 -10 15 -12 -13 18 14 -16 -17 -18 26 -20 22 -22 -23 23 24 28 -27 -28 -29 -30 30 -32
leaf_value=0.12635303075269919 -0.067175423796020053 0.042578308916312445 0.060902084883436486 -0.070167309483975038 -0.11571923764196484 -0.047430781899867519 0.018985492885218294 -0.13829614044446611 0.043018897218280144 0.00084637632404592511 -0.011531289829111863 -0.052742825637523472 0.092490767389974554 0.07584720250134222 -0.044176778698485936 -0.11601921069692905 0.034789329811296135 0.12544554392488191 0.013114685795293474 -0.10481765863364199 0.025518120072103929 0.14153590576317471 -0.013747549021262895 -0.1173234259988083 -0.019835691455277846 0.067500581328920048 0.078398074140428362 -0.047154484364848322 -0.026402559005897542 -0.11641564678214647 -0.043619415730206383
leaf_weight=1.9362167865037934 2.3944075554609316 5.7013761997222954 2.8310923129320136 1.8640785813331593 3.9189048632979384 2.3673098981380454 2.9236305058002463 1.9805763587355605 2.5998373925685874 1.5815039128065134 4.2719267010688773 3.1750248670577994 2.2806494086980811 3.7160043567419052 3.8502048403024673 4.3764107823371878 2.9840367287397385 10.186896935105322 2.2274023592472076 5.3919914364814785 6.2314372807741165 1.9755506813526154 2.7694110646843937 3.649742245674136 2.787953868508338 7.6721910834312439 2.0333041548728934 1.3749454468488691 3.54590219259262 3.8598340898752195 4.3045337498188019
leaf_count=12 12 25 14 12 22 13 13 11 13 10 19 13 10 16 17 37 13 63 10 36 27 10 20 29 17 37 12 10 18 32 24
internal_value=0 0.645083 -0.3895 0.250106 -0.522995 -0.472611 -0.538468 -0.587336 -0.54945 -0.614766 0.347695 0.0133784 0.132054 -0.0492805 0.147708 -0.710036 -0.0158291 1.00777 0.532715 -0.64272 0.489907 0.680437 -0.67992 -0.598689 -0.669071 0.793601 1.17617 -0.931013 -0.542155 -0.632201 -0.78035
internal_weight=0 41.873 70.8913 20.0444 53.2476 49.3287 46.4976 43.574 41.5934 38.9936 18.1803 17.6437 14.4687 9.96062 7.56621 33.6422 5.35135 21.8286 4.50805 29.2658 13.9084 7.67693 27.6843 20.9174 18.148 9.60841 12.2202 6.76694 14.4982 10.9523 8.16437
internal_count=627 217 410 93 332 310 296 283 272 259 81 78 65 45 33 233 26 124 20 196 62 35 186 140 120 49 75 46 91 73 56
shrinkage=0.1


Tree=12
num_leaves=32
num_cat=0
split_feature=2 5 6 1 3 0 1 1 1 7 1 1 0 1 0 6 1 1 1 1 0 0 7 0 1 0 1 1 0 0 1
split_gain=23.7465 5.43162 3.2898 1.5922 1.50334 2.94146 1.4313 1.19023 2.27188 1.97225 1.04023 1.66869 1.23398 1.01591 0.922256 0.900176 2.88316 1.66256 0.813668 0.732494 0.714974 0.647201 0.598938 0.534401 0.443438 1.06006 0.422878 1.17062 0.669376 0.902976 0.878353
threshold=1.0000000180025095e-35 1.5000000000000002 6.5000000000000009 23.125000000000004 2.5000000000000004 16.500000000000004 56.197900000000011 30.597900000000003 26.468750000000004 1.0000000180025095e-35 19.022900000000003 14.254150000000001 20.250000000000004 13.208350000000001 49.500000000000007 3.5000000000000004 30.035400000000003 77.008350000000021 29.850000000000005 7.883350000000001 34.250000000000007 18.500000000000004 1.5000000000000002 23.500000000000004 7.7375000000000007 27.500000000000004 7.883350000000001 7.910400000000001 38.500000000000007 20.250000000000004 8.0812500000000025
decision_type=2 2 2 2 2 2 2 2 2 2 2 2 2 2 2 2 2 2 2 2 2 2 2 2 2 2 2 2 2 2 2
left_child=1 18 14 10 5 -4 7 8 9 19 11 12 -3 21 15 16 -2 -18 23 -7 -19 -11 -14 -1 25 -23 -26 -28 29 -29 -31
right_child=2 3 4 -5 -6 6 -8 -9 -10 13 -12 -13 22 -15 -16 -17 17 20 -20 -21 -22 24 -24 -25 26 -27 27 28 -30 30 -32
leaf_value=0.12327279704359025 -0.090610697869697568 0.098893936595366716 0.053629456418194027 -0.048414916610946657 -0.11020109185015009 -0.043825261135918461 0.016980556273780211 -0.13355464307378009 0.038105249070726335 -0.12208912603140101 0.10271379506080709 -0.031762975922537059 0.057413039836708479 -0.11426762828218605 -0.047831653462858004 0.062541929552652226 0.070989192119154457 -0.052397782053780095 0.11417558266365913 0.031068548187313451 0.027348990151825153 -0.025082148097022958 0.0022840312337596368 0.06248546246580812 -0.024309258482971535 -0.11551883458908785 -0.11461845312748378 0.01596161925656334 -0.0025554324747100593 -0.11683610559686111 -0.048112754287000251
leaf_weight=1.7934681922197357 2.7164228409528759 3.0580711066722932 2.8901322633028022 2.7029519379138938 3.7143116369843474 2.3090127855539313 2.9409753233194342 1.8524005711078633 2.6393345296382895 1.6086487174034143 1.9609234631061545 3.8259835392236701 3.2967129349708539 4.0175171494483939 3.1521461009979239 2.8211001306772223 4.3808366507291776 2.4267149567604065 11.37441064417362 3.0060210675001144 2.0946775078773499 2.0632872432470348 4.8995417952537537 7.4700126945972443 4.8773760646581676 3.4857762828469276 2.9689616858959225 1.4504131972789753 2.8868548274040213 2.6853399053215963 6.0493427515029907
leaf_count=12 13 13 14 16 22 13 13 11 13 11 10 18 15 37 13 13 19 10 75 13 10 14 21 37 30 30 27 10 14 22 38
internal_value=0 0.603844 -0.361562 0.228886 -0.489213 -0.441527 -0.50455 -0.551883 -0.515635 -0.5789 0.341982 0.252889 0.446841 -0.672341 0.0117398 0.118717 -0.00431382 0.270859 0.962566 -0.0146761 -0.154526 -0.605039 0.244581 0.742543 -0.567608 -0.818921 -0.500942 -0.579343 -0.450599 -0.571074 -0.692407
internal_weight=0 40.3821 69.0376 19.7442 51.4457 47.7314 44.8413 41.9003 40.0479 37.4086 17.0412 15.0803 11.2543 32.0935 17.5919 14.4398 11.6187 8.90223 20.6379 5.31503 4.52139 28.076 8.19625 9.26348 26.4674 5.54906 20.9183 16.0409 13.072 10.1851 8.73468
internal_count=627 217 410 93 332 310 296 283 272 259 77 67 49 233 78 65 52 39 124 26 20 196 36 49 185 44 141 111 84 70 60
shrinkage=0.1


Tree=13
num_leaves=32
num_cat=0
split_feature=2 5 1 3 0 0 1 1 6 1 0 1 1 3 0 1 1 0 0 1 0 0 0 0 0 1 0 1 1 1 1
split_gain=19.9824 4.93869 2.99194 3.40788 4.32618 1.55628 2.29854 5.65949 2.0251 2.30292 4.3312 2.23456 1.73186 1.66133 1.44005 1.34415 1.0951 2.38696 1.8157 1.18706 1.03696 1.07222 1.51986 1.2434 0.928225 0.92601 0.844048 0.83624 0.790249 0.960596 0.549785
threshold=1.0000000180025095e-35 1.5000000000000002 7.910400000000001 1.5000000000000002 17.500000000000004 49.500000000000007 26.266650000000002 26.775000000000002 1.5000000000000002 77.008350000000021 28.250000000000004 36.252100000000006 19.379150000000003 1.0000000180025095e-35 25.500000000000004 24.808350000000001 8.3312500000000025 31.500000000000004 31.500000000000004 12.500000000000002 32.250000000000007 19.500000000000004 25.500000000000004 23.500000000000004 28.250000000000004 31.854150000000001 28.250000000000004 29.850000000000005 7.7812500000000009 7.227100000000001 15.372900000000001
decision_type=2 2 2 2 2 2 2 2 2 2 2 2 2 2 2 2 2 2 2 2 2 2 2 2 2 2 2 2 2 2 2
left_child=1 27 20 4 -4 6 12 -8 -9 10 -10 -12 13 14 -6 24 18 19 -16 -18 21 -2 23 -23 30 -7 28 -1 29 -24 -3
right_child=2 15 3 -5 5 25 7 8 9 -11 11 -13 -14 -15 16 -17 17 -19 -20 -21 -22 22 26 -25 -26 -27 -28 -29 -30 -31 -32
leaf_value=0.069466731827577718 -0.12427405366872731 0.030547648888599933 0.087497076162657547 -0.097155039423935496 -0.09371598452995962 -0.035569466615308354 0.15831754416778887 0.052125567543854792 0.064371827142512911 -0.11866829664298942 -0.14942550589088704 -0.003502843453245431 -0.11810341256138408 0.059158180957338394 -0.050763156784427124 -0.06332057766105588 -0.047814990046268747 -0.12545558727720318 0.10168678908655703 0.060370306099379906 -0.12027766382109301 -0.038983123739052106 -0.12220203172927234 0.07770335160554119 -0.011626510173950963 -0.11757105327785011 -0.0044713683549151128 0.111028876619209 -0.12683140179220251 -0.026525390984335963 0.077786555326100515
leaf_weight=8.9325830638408679 2.0596972182393101 10.296370103955274 3.9983481913804999 5.2179823294281951 3.5561013147234926 3.2536817491054526 2.3035575151443508 3.8324039429426184 4.178416855633257 2.4089646339416495 2.1864825114607811 2.0179260522127151 2.3949377015233031 1.9661120548844344 1.4879345446825012 1.7292146086692799 2.1717936024069786 2.2587124705314636 1.6449263989925382 1.9028787314891811 3.1663200855255118 2.3692983239889136 1.5828007310628871 1.4859482198953631 4.269551843404769 2.3877178207039833 1.6550247073173521 10.568676352500914 2.6790615394711494 3.113709032535553 3.2386917173862448
leaf_count=49 14 45 19 32 27 15 10 16 19 11 12 10 22 14 13 12 11 16 10 10 25 16 12 10 19 11 11 75 22 22 17
internal_value=0 0.56392 -0.335475 -0.207487 -0.116775 -0.216026 -0.135997 0.126289 -0.103195 -0.324951 -0.0773157 -0.793892 -0.391409 -0.265239 -0.394601 0.208521 -0.190783 -0.429999 0.292816 0.0270772 -0.682927 -0.572793 -0.465707 0.0599197 0.290271 -0.702766 -0.690102 0.919913 -0.834922 -0.5877 0.418511
internal_weight=0 39.0351 67.2807 49.1689 43.9509 39.9525 34.3111 16.9278 14.6242 10.7918 8.38283 4.20441 17.3834 14.9885 13.0223 19.5338 9.46625 6.33338 3.13286 4.07467 18.1119 14.9455 12.8858 3.85525 17.8046 5.6414 9.0306 19.5013 7.37557 4.69651 13.5351
internal_count=627 217 410 278 246 227 201 78 68 52 41 22 123 101 87 93 60 37 23 21 132 107 93 26 81 26 67 124 56 34 62
shrinkage=0.1


Tree=14
num_leaves=32
num_cat=0
split_feature=2 5 6 0 0 1 0 5 3 1 7 1 1 1 0 1 1 7 0 1 1 1 0 1 0 7 4 1 0 0 1
split_gain=16.8366 4.46154 2.69484 2.10356 1.40419 1.16994 0.920968 1.75604 1.29407 1.90226 1.69649 1.22304 0.875048 1.43413 1.02248 0.862598 0.808785 1.06323 1.56051 0.794972 0.578296 0.682693 0.852065 0.752041 0.57403 0.475586 0.451447 0.41224 0.403966 1.10197 0.393611
threshold=1.0000000180025095e-35 1.5000000000000002 4.5000000000000009 9.5000000000000018 18.500000000000004 23.125000000000004 50.500000000000007 1.0000000180025095e-35 1.5000000000000002 31.137500000000003 1.0000000180025095e-35 14.254150000000001 19.022900000000003 14.254150000000001 20.250000000000004 29.850000000000005 31.854150000000001 1.0000000180025095e-35 36.500000000000007 13.825000000000001 7.7625000000000011 7.8125000000000009 38.500000000000007 8.0812500000000025 23.500000000000004 1.5000000000000002 1.5000000000000002 8.0812500000000025 26.500000000000004 29.500000000000004 7.9875000000000016
decision_type=2 2 2 2 2 2 2 2 2 2 2 2 2 2 2 2 2 2 2 2 2 2 2 2 2 2 2 2 2 2 2
left_child=1 15 16 -4 27 12 7 -6 9 10 19 20 13 14 -3 24 -2 -18 -19 -9 -12 -22 23 30 -1 -16 -17 -5 -25 -30 -23
right_child=2 5 3 4 6 -7 -8 8 -10 -11 11 -13 -14 -15 25 26 17 18 -20 -21 21 22 -24 28 -26 -27 -28 -29 29 -31 -32
leaf_value=0.11924947209995312 0.03340412428644228 0.089016250744399228 0.029118934753091685 -0.065378583720975755 0.030817410503235283 -0.043809829287180864 -0.10016717921106739 -0.029603515401351161 -0.1291086499756734 0.054653948176412739 -0.073850768755005111 -0.11262121765160976 0.092930067523870188 -0.032664873707890313 0.050353344229426882 0.11791952114984722 0.021783479485544134 0.0033405592854417864 -0.10162817351449593 0.049870468286571518 0.014372301464844013 -0.062179048835445366 0.014518587691343522 -0.06837576210888309 0.052587647903744074 0.00074218670321989251 0.061059821884038905 -0.13120425686967707 0.032047718463093643 -0.070661198808138828 -0.11523215283290456
leaf_weight=1.5813675969839112 5.907318368554118 2.9596412628889146 3.7421406954526892 1.5613113045692437 3.2535547316074362 2.5674937516450873 2.6744225472211829 2.8629004955291775 1.7773929387330998 1.9367365166544905 6.7447944283485475 3.5051014125347129 1.8818809837102879 3.7756792604923239 3.1920613497495633 8.1188707351684535 4.8492137938737851 3.2997512817382812 2.4812292158603668 2.2461250573396683 2.0869533270597485 3.7264522835612279 1.9508371353149405 2.1023155301809311 7.0533677041530609 4.896052747964859 1.6864026188850409 2.4354332536458969 2.2948527336120605 1.917397752404213 2.2384977787733078
leaf_count=12 27 13 19 10 15 16 16 16 12 10 55 36 10 18 15 63 20 14 13 10 12 35 10 18 37 21 12 17 11 14 20
internal_value=0 0.526806 -0.311716 -0.4294 -0.488906 0.190367 -0.434158 -0.394882 -0.459516 -0.415544 -0.474368 -0.575854 0.286958 0.20541 0.387247 0.878439 0.0373827 -0.127474 -0.417126 0.0533632 -0.492207 -0.390398 -0.46873 -0.566262 0.647961 0.203218 1.0814 -1.0549 -0.325736 -0.147049 -0.820886
internal_weight=0 37.7128 65.5947 49.0572 45.3151 19.2728 41.3183 38.6439 35.3904 33.613 31.6762 26.5672 16.7053 14.8234 11.0478 18.44 16.5375 10.6302 5.78098 5.10903 23.0621 16.3173 14.2304 12.2795 8.63474 8.08811 9.80527 3.99674 6.31457 4.21225 5.96495
internal_count=627 217 410 336 317 93 290 274 259 247 237 211 77 67 49 124 74 47 27 26 175 120 108 98 49 36 75 27 43 25 55
shrinkage=0.1


Tree=15
num_leaves=32
num_cat=0
split_feature=2 5 1 3 0 0 0 0 6 0 8 1 0 1 1 0 0 0 0 4 7 1 0 1 1 0 1 1 1 0 0
split_gain=14.1608 4.04256 2.4624 2.89406 3.68633 1.36567 3.5491 1.37962 1.31718 1.21604 1.46793 1.16778 1.16083 1.14468 1.33038 1.06277 1.02682 1.3889 1.04447 0.989076 1.04849 1.60665 1.63516 1.21239 0.878308 0.765741 0.789262 0.942459 0.614923 0.579206 0.938795
threshold=1.0000000180025095e-35 1.5000000000000002 7.910400000000001 1.5000000000000002 17.500000000000004 24.500000000000004 27.500000000000004 20.250000000000004 6.5000000000000009 45.500000000000007 1.0000000180025095e-35 19.379150000000003 30.250000000000004 31.854150000000001 74.375000000000014 32.250000000000007 19.500000000000004 25.500000000000004 23.500000000000004 1.5000000000000002 1.5000000000000002 11.750000000000002 27.500000000000004 14.254150000000001 29.850000000000005 28.250000000000004 7.7812500000000009 7.227100000000001 8.0812500000000025 37.500000000000007 27.500000000000004
decision_type=2 2 2 2 2 2 2 2 2 2 2 2 2 2 2 2 2 2 2 2 2 2 2 2 2 2 2 2 2 2 2
left_child=1 24 15 4 -4 7 -7 -6 13 10 11 -10 28 -8 -15 16 -2 18 -18 20 23 22 -22 -3 29 26 27 -19 -12 30 -1
right_child=2 19 3 -5 5 6 8 -9 9 -11 12 -13 -14 14 -16 -17 17 25 -20 -21 21 -23 -24 -25 -26 -27 -28 -29 -30 -31 -32
leaf_value=0.043180458071879625 -0.12033928298667587 0.093146972168847236 0.08263880849957296 -0.09061289458678487 -0.010863528349696462 0.10137479220745958 0.041127364133060777 -0.11386382209553583 -0.0086107199556199332 -0.099403472624433498 -0.11148736438287421 -0.1199818637359253 0.028845642021006465 -0.055205799697096693 0.030711401494060011 -0.11781030066685204 -0.032514477323407148 -0.11938175959858571 0.075304033594361594 -0.030747294491601143 0.022082966264233121 0.06166219426474559 -0.086893536778250527 0.0075775960049330798 0.10549368531683186 -0.00072228132134577504 -0.12366574672668609 -0.020037109960507192 -0.023390664694699373 0.019985424314454926 0.12410729073041282
leaf_weight=3.3630228191614169 1.8291089013218904 3.9799593985080728 3.9883822202682486 4.8235342577099791 2.4344922378659239 2.5959464609622946 5.0740057528018969 2.7915732935070992 1.4983068406581885 2.7148020267486563 0.92420719563960996 2.5333823561668396 4.8213248029351234 4.4497561156749725 3.0291227996349335 2.8209040462970725 2.2420358359813681 1.4106462001800517 1.4993261545896532 3.492747262120246 3.0405129343271255 3.2024066746234894 2.5164062231779099 2.8354327380657196 9.084844306111334 1.6138191297650335 2.3846275061368942 2.9559783339500427 5.5523211807012558 2.4753472805023193 2.4983714818954468
leaf_count=21 14 19 19 32 17 15 22 19 12 16 10 23 32 20 14 25 16 12 10 20 13 16 11 14 75 11 22 22 27 12 16
internal_value=0 0.491631 -0.289003 -0.172158 -0.0886748 -0.183669 -0.108859 -0.658825 -0.204104 -0.377159 -0.267912 -0.785927 -0.0830562 0.0446565 -0.204073 -0.61835 -0.505042 -0.399532 0.106931 0.173471 0.281327 0.0524601 -0.272662 0.575472 0.839848 -0.626052 -0.773977 -0.521306 -0.359622 0.605457 0.776749
internal_weight=0 36.4891 63.9876 47.2312 42.4076 38.4192 33.1932 5.22607 30.5972 18.0443 15.3295 4.03169 11.2979 12.5529 7.47888 16.7564 13.9355 12.1064 3.74136 19.0675 15.5747 8.75933 5.55692 6.81539 17.4216 8.36507 6.75125 4.36662 6.47653 8.33674 5.86139
internal_count=627 217 410 278 246 227 191 36 176 120 104 35 69 56 34 132 107 93 26 93 73 40 24 33 124 67 56 34 37 49 37
shrinkage=0.1


Tree=16
num_leaves=32
num_cat=0
split_feature=2 5 1 3 0 0 0 0 1 0 1 6 1 0 8 0 0 0 1 1 0 0 1 1 1 0 0 0 1 1 1
split_gain=11.9015 3.65297 2.15746 2.53323 3.03641 1.45851 2.49399 1.35946 1.33226 2.428 5.00002 2.74749 2.06355 1.79756 1.89286 1.02524 0.966614 1.20042 0.914847 0.884571 0.817805 0.686797 0.761765 0.880723 0.680699 1.62137 0.612164 0.59298 0.6245 0.540057 0.523703
threshold=1.0000000180025095e-35 1.5000000000000002 7.910400000000001 2.5000000000000004 17.500000000000004 24.500000000000004 27.500000000000004 20.250000000000004 26.266650000000002 55.750000000000007 26.775000000000002 1.5000000000000002 15.372900000000001 46.500000000000007 1.0000000180025095e-35 32.250000000000007 19.500000000000004 25.500000000000004 24.808350000000001 29.850000000000005 23.500000000000004 28.250000000000004 7.7812500000000009 7.227100000000001 8.3312500000000025 31.500000000000004 23.500000000000004 28.250000000000004 15.372900000000001 9.8437500000000018 12.318750000000001
decision_type=2 2 2 2 2 2 2 2 2 2 2 2 2 2 2 2 2 2 2 2 2 2 2 2 2 2 2 2 2 2 2
left_child=1 19 15 4 -4 7 -7 -6 12 10 -10 -12 24 14 -13 16 -2 20 27 26 -18 22 23 -19 -8 -26 -1 28 29 -3 -27
right_child=2 18 3 -5 5 6 8 -9 9 -11 11 13 -14 -15 -16 -17 17 21 -20 -21 -22 -23 -24 -25 25 30 -28 -29 -30 -31 -32
leaf_value=0.11640079191110018 -0.11809547350415182 0.035640936488415167 0.072940495561091653 -0.099830491215790837 -0.0098386425781709086 0.080723973377330158 0.015486888235229472 -0.11022965191805355 0.14195764907826022 -0.086625223003842858 0.070574165936554384 -0.13011967892189799 -0.11798779204286125 0.03265467604013722 -0.021886777726773193 -0.1159244471065104 -0.029923563241619551 -0.11730352737186174 -0.056472529720206055 0.10296322652358635 0.064630062073633351 -0.00065035476178191328 -0.12141036488759008 -0.018284536992772955 0.0040189337468101837 -0.044363062479048337 0.04387952183722519 -0.0099728396824821409 0.072389043665660763 -0.015992190793079671 -0.12736763756924238
leaf_weight=1.4113698825240151 1.6848700642585779 7.0902139097452217 4.0625318288803092 3.3329269215464583 2.4200778380036345 2.7737403362989417 3.3408733978867549 3.0474748387932777 2.5857642143964794 2.7590060234069815 3.1061421334743491 2.6980589553713781 2.8326757699251166 2.5966027230024338 4.0284708142280579 2.5918471738696089 2.1950980722904196 1.2978548556566218 1.6020266711711872 8.4120211824774724 1.5682416111230852 1.6131079122424123 2.1957256570458412 2.9174887761473656 3.8545870259404182 1.3007501140236857 6.6397949904203415 4.2354574203491202 3.0868121832609168 2.836003765463829 1.8288281112909315
leaf_count=12 14 33 19 23 17 16 25 22 11 13 13 18 29 12 18 25 16 12 12 75 10 11 22 22 19 10 37 19 17 12 13
internal_value=0 0.458704 -0.267274 -0.158267 -0.0935104 -0.178853 -0.101137 -0.65794 -0.182594 -0.00403212 0.1544 -0.108805 -0.423804 -0.380183 -0.652998 -0.583274 -0.472467 -0.371198 0.158133 0.802861 0.0947839 -0.589744 -0.736495 -0.487713 -0.216375 -0.393959 0.565925 0.225272 0.331052 0.208889 -0.928684
internal_weight=0 35.3137 62.6327 46.5685 43.2356 39.1731 33.7055 5.46755 30.9318 17.774 15.015 12.4293 13.1577 9.32313 6.72653 16.0642 13.4724 11.7875 18.8505 16.4632 3.76334 8.02418 6.41107 4.21534 10.325 6.98417 8.05116 17.2485 13.013 9.92622 3.12958
internal_count=627 217 410 278 255 236 197 39 181 85 72 61 96 48 36 132 107 93 93 124 26 67 56 34 67 42 49 81 62 45 23
shrinkage=0.1


Tree=17
num_leaves=32
num_cat=0
split_feature=2 5 1 3 0 0 0 0 0 1 0 3 0 8 1 1 1 1 1 1 7 0 4 1 1 1 0 0 1 1 0
split_gain=10.0206 3.28042 1.90617 2.74481 3.0717 1.61267 2.94874 2.19114 1.87888 3.41615 3.16861 2.74994 1.46046 1.22297 0.889059 0.825312 0.770872 0.75714 1.21341 1.2043 1.24747 0.594676 0.544952 0.419096 0.405351 1.18788 1.32396 0.745555 0.62213 0.554467 0.411531
threshold=1.0000000180025095e-35 1.5000000000000002 15.147900000000002 2.5000000000000004 17.500000000000004 55.750000000000007 47.500000000000007 36.500000000000007 31.500000000000004 64.179150000000007 28.250000000000004 1.0000000180025095e-35 27.500000000000004 1.0000000180025095e-35 29.850000000000005 23.125000000000004 31.137500000000003 19.022900000000003 14.254150000000001 8.6729000000000003 1.5000000000000002 23.500000000000004 1.5000000000000002 39.643750000000004 7.133350000000001 7.2396000000000003 26.500000000000004 21.500000000000004 7.7375000000000007 1.0000000180025095e-35 46.500000000000007
decision_type=2 2 2 2 2 2 2 2 2 2 2 2 2 2 2 2 2 2 2 2 2 2 2 2 2 2 2 2 2 2 2
left_child=1 14 13 4 -4 6 7 8 9 10 12 -10 -6 -2 21 17 -9 18 19 20 -3 -1 -16 -5 29 -26 27 -27 -28 -15 -30
right_child=2 15 3 23 5 -7 -8 16 11 -11 -12 -13 -14 24 22 -17 -18 -19 -20 -21 -22 -23 -24 -25 25 26 28 -29 30 -31 -32
leaf_value=0.11462076469728394 0.026133781155408403 0.051617002864991192 0.11444751144940109 -0.053875331806491816 0.11967898037281979 -0.080091959384422373 0.097205338848356027 -0.036805709419292697 0.13712556566941611 -0.10336500550526782 -0.10247972477901796 -0.050783717832672576 0.019176698286447198 -0.027781214407834171 0.11292954031248835 -0.039690071013320213 -0.12719835807567317 0.083447777765897568 -0.034220406143073083 0.081310565456221673 -0.031515495220475413 0.04042691504864665 0.043988697494697811 -0.12747863367238627 0.031801664349752796 -0.057696318609821745 -0.11099957713728142 -0.12029019273750284 -0.021838690337146041 -0.11570796132221667 -0.072551658019770246
leaf_weight=1.2958720922470073 2.4038512036204365 3.5272898226976448 2.2744167596101823 1.369783662259578 1.9879384562373248 2.6893632411956778 2.8324788808822623 1.958417393267154 2.1893816515803328 3.1569977998733512 1.7728734314441679 1.2087895050644877 5.3029133230447769 1.1509860455989867 6.3871698752045631 2.4459696859121314 1.8203995823860166 1.8173183202743519 3.7193661183118811 3.3915386497974396 3.6968485563993454 6.4940692186355591 1.3974401950836179 1.7774380147457121 1.9112077206373241 4.5759076923131969 0.96721608191728481 3.2575621381402016 12.782982073724268 1.902907207608223 1.8291321247816075
leaf_count=12 17 18 10 10 12 13 12 15 10 14 10 11 29 12 63 16 12 10 18 15 16 37 12 13 12 35 11 28 93 19 12
internal_value=0 0.42796 -0.248188 -0.0703153 0.0320063 -0.0695292 0.018953 -0.12022 0.0450951 -0.137799 0.174237 0.702829 0.465799 -0.423515 0.766533 0.144432 -0.803513 0.226407 0.149319 0.321532 0.0907515 0.527692 1.00554 -0.954438 -0.481528 -0.440024 -0.501903 -0.837261 -0.333282 -0.825691 -0.281869
internal_weight=0 34.1729 61.1229 30.3412 27.194 24.9196 22.2302 19.3977 15.6189 12.2207 9.06373 3.39817 7.29085 30.7818 15.5746 18.5983 3.77882 16.1524 14.335 10.6157 7.22414 7.78994 7.78461 3.14722 28.3779 25.324 23.4128 7.83347 15.5793 3.05389 14.6121
internal_count=627 217 410 171 148 138 125 113 86 65 51 21 41 239 124 93 27 77 67 49 34 49 75 23 222 191 179 63 116 31 105
shrinkage=0.1


Tree=18
num_leaves=32
num_cat=0
split_feature=2 5 0 1 3 0 1 6 1 4 1 0 1 0 4 1 1 7 0 1 1 1 1 0 1 4 6 1 1 1 7
split_gain=8.40131 2.95397 1.75002 2.12363 1.84994 1.83432 3.42645 1.65152 1.41134 1.64733 0.889927 0.887993 2.77563 2.47937 0.755488 0.830647 0.905673 1.67061 1.13661 0.644398 0.641996 0.798551 1.28239 0.575943 0.560749 0.547383 0.517943 0.425433 0.816031 0.769284 0.564185
threshold=1.0000000180025095e-35 1.5000000000000002 6.5000000000000009 26.266650000000002 2.5000000000000004 55.750000000000007 26.775000000000002 1.5000000000000002 19.379150000000003 1.0000000180025095e-35 29.850000000000005 28.250000000000004 72.391650000000013 46.500000000000007 1.5000000000000002 19.022900000000003 14.254150000000001 1.5000000000000002 27.500000000000004 14.456250000000002 7.133350000000001 7.2396000000000003 7.7375000000000007 23.500000000000004 1.0000000180025095e-35 1.5000000000000002 6.5000000000000009 8.3312500000000025 7.910400000000001 7.883350000000001 1.5000000000000002
decision_type=2 2 2 2 2 2 2 2 2 2 2 2 2 2 2 2 2 2 2 2 2 2 2 2 2 2 2 2 2 2 2
left_child=1 10 -2 8 5 6 -5 -8 9 19 23 12 -9 26 15 16 17 -3 -19 20 24 -22 -23 -1 -4 -12 -13 28 29 30 -24
right_child=2 14 3 4 -6 -7 7 11 -10 -11 25 13 -14 -15 -16 -17 -18 18 -20 -21 21 22 27 -25 -26 -27 -28 -29 -30 -31 -32
leaf_value=0.11305557993885423 0.050922249885940178 0.082133435661392085 -0.025561478892709818 0.12286325077827676 -0.11704925229526669 -0.07411553699717438 0.053258027931115164 0.060651712835549682 -0.1174570907115574 0.055084177415406492 0.11154883619297984 -0.14506883712339583 -0.077920018463821572 0.023663837990578543 -0.029834875172689762 0.083757249911934936 -0.031636607006893573 0.034983286798202451 -0.051442737248470739 -0.096985662283772187 0.028056539130644032 -0.11589521092202193 -0.060520928267874544 0.037200892812848878 -0.11407926487280673 0.040965057729737173 -0.064629363360284256 -0.048350454099917478 0.012348684620211381 -0.081863031810647288 0.011191310413523113
leaf_weight=1.1879525482654552 3.0419983118772498 3.6837180852890032 1.1271417215466599 2.5526427179575064 1.338012222200631 2.619339480996131 4.0459310710430136 3.6728146672248823 2.3457956425845614 1.8278451561927784 5.8472114950418472 1.7091673985123634 2.3835631906986237 2.6197263896465302 3.3525879010558119 1.938384577631949 3.3078638911247245 3.4671506583690643 2.7118648886680603 2.0378562286496154 1.947629109025004 1.9647374525666259 1.748529344797136 6.3588455021381378 1.960364870727062 1.3529247343540189 1.5055919252336025 8.7065267637371999 4.8742383196949959 2.7859407141804695 2.9445677325129509
leaf_count=12 15 19 12 11 13 13 17 17 26 11 63 10 11 12 20 11 16 15 12 16 12 19 14 37 21 12 11 61 37 31 20
internal_value=0 0.397656 -0.229697 -0.269328 -0.0302347 0.0420423 0.152995 -0.0192925 -0.425928 -0.370919 0.73136 -0.20707 0.0611508 -0.485492 0.131096 0.226387 0.136435 0.2883 -0.0294763 -0.426899 -0.387466 -0.33428 -0.386289 0.491413 -0.817645 0.98286 -1.07396 -0.314205 -0.194883 -0.402371 -0.155269
internal_weight=0 33.2085 59.76 56.718 22.4468 21.1088 18.4894 15.9368 34.2712 31.9254 14.7469 11.8909 6.05638 5.83449 18.4616 15.109 13.1706 9.86273 6.17902 30.0975 28.0597 24.9722 23.0245 7.5468 3.08751 7.20014 3.21476 21.0598 12.3533 7.47904 4.6931
internal_count=627 217 410 395 115 102 89 78 280 254 124 61 28 33 93 73 62 46 27 243 227 194 182 49 33 75 21 163 102 65 34
shrinkage=0.1


Tree=19
num_leaves=32
num_cat=0
split_feature=2 5 1 3 0 0 0 0 1 1 6 1 1 1 0 0 0 0 0 0 0 1 1 1 8 0 1 1 1 0 0
split_gain=7.05277 2.63988 1.5237 1.93498 2.01703 1.07171 2.02153 1.22837 1.22405 2.31255 1.96363 2.86456 2.96877 1.71376 0.990319 1.00614 1.26762 0.901424 1.11096 2.7828 0.749727 0.739557 0.70295 0.795074 0.988403 0.90488 0.865911 0.487235 0.88763 0.444834 0.407488
threshold=1.0000000180025095e-35 1.5000000000000002 7.910400000000001 2.5000000000000004 17.500000000000004 24.500000000000004 27.500000000000004 20.250000000000004 56.197900000000011 36.252100000000006 2.5000000000000004 26.775000000000002 26.266650000000002 15.372900000000001 32.250000000000007 19.500000000000004 25.500000000000004 49.500000000000007 27.500000000000004 23.500000000000004 23.500000000000004 7.227100000000001 23.125000000000004 15.372900000000001 1.0000000180025095e-35 25.500000000000004 7.8667000000000007 13.208350000000001 8.3312500000000025 37.500000000000007 31.500000000000004
decision_type=2 2 2 2 2 2 2 2 2 2 2 2 2 2 2 2 2 2 2 2 2 2 2 2 2 2 2 2 2 2 2
left_child=1 17 14 4 -4 7 -7 -6 9 10 -8 12 13 27 15 -2 20 18 19 -1 -17 -18 23 24 -3 -26 -27 28 -12 -10 -30
right_child=2 22 3 -5 5 6 8 -9 29 -11 11 -13 -14 -15 -16 16 21 -19 -20 -21 -22 -23 -24 -25 25 26 -28 -29 30 -31 -32
leaf_value=0.11194043998675095 -0.11595488104292839 -0.033260632764571973 0.060444436155309603 -0.091018060079784371 -0.0028881390518142604 0.074652043513388597 0.052590619037231501 -0.10216597335856314 0.050877941570814038 -0.11233977947399738 0.015272781778418036 -0.13778084164374368 0.08710100949887746 -0.11324333036569778 -0.11270041455410083 -0.018568078469928535 -0.11661536955479426 -0.00026810787337077361 0.1045219954122014 -0.034607655986319506 0.07520911760513585 -0.036102588095891022 -0.038437567481251288 0.058913106625092283 -0.01860841186544241 0.010331327941061251 0.092458641498779193 0.037475800314589622 -0.024223056789067322 -0.0024003442078113892 -0.080898076465318713
leaf_weight=2.7864479720592481 1.4797551780939091 4.0609821677207965 4.0603460669517508 2.8974101133644572 2.2971167489886275 2.7659558728337279 3.6456533670425513 2.7244576662778854 3.1522916108369818 2.703458033502101 3.3462600037455577 2.0945542305707923 2.4739807695150366 2.1870775520801535 2.1152942515909663 1.9873924851417524 1.4136445000767706 1.627013400197028 7.1442739143967628 2.4220461919903755 1.4929603189229965 5.9129474461078644 2.4035143330693236 3.8837096542119971 2.7727217674255371 2.5135855674743652 2.6239928603172302 1.4799908697605122 2.6815894693136215 3.1163240149617195 2.407630980014801
leaf_count=30 14 18 19 23 17 16 16 22 14 15 25 14 11 28 25 16 14 14 64 16 10 53 16 21 13 13 12 10 14 16 18
internal_value=0 0.36997 -0.212663 -0.120316 -0.0646824 -0.137961 -0.0706685 -0.567514 -0.147842 -0.254521 -0.138903 -0.284285 -0.127152 -0.331195 -0.495017 -0.386213 -0.280323 0.697001 0.789158 0.437929 0.216593 -0.516373 0.119577 0.195972 0.0684243 0.274305 0.522774 -0.154464 -0.247315 0.243916 -0.510351
internal_weight=0 32.2383 58.4361 44.0341 41.1367 37.0763 32.0548 5.02157 29.2888 23.0202 20.3167 16.6711 14.5765 12.1025 14.402 12.2867 10.8069 13.9798 12.3528 5.20849 3.48035 7.32659 18.2585 15.855 11.9713 7.9103 5.13758 9.91547 8.43548 6.26862 5.08922
internal_count=627 217 410 278 255 236 197 39 181 151 136 120 106 95 132 107 93 124 110 46 26 67 93 77 56 38 25 67 57 30 32
shrinkage=0.1


Tree=20
num_leaves=32
num_cat=0
split_feature=2 1 0 1 0 0 0 1 6 1 4 0 1 0 0 7 0 4 0 1 0 1 1 0 1 0 1 7 1 1 0
split_gain=5.90662 2.55777 1.52249 1.93573 1.51634 2.74048 1.41045 2.67699 1.61363 1.25499 1.22701 1.46378 2.06059 2.07791 1.13482 1.56108 0.838349 1.39242 0.803765 0.742499 0.738459 1.24665 1.68195 1.21488 0.731257 0.724589 1.07811 0.693981 0.622062 1.23253 0.573996
threshold=1.0000000180025095e-35 31.331250000000001 9.5000000000000018 26.266650000000002 36.500000000000007 32.250000000000007 55.750000000000007 26.775000000000002 1.5000000000000002 19.379150000000003 1.0000000180025095e-35 46.500000000000007 57.489600000000003 28.250000000000004 18.500000000000004 1.0000000180025095e-35 28.250000000000004 1.5000000000000002 27.500000000000004 13.208350000000001 8.0000000000000018 14.254150000000001 8.6729000000000003 26.500000000000004 7.7625000000000011 21.500000000000004 20.550000000000001 1.5000000000000002 7.883350000000001 7.910400000000001 38.500000000000007
decision_type=2 2 2 2 2 2 2 2 2 2 2 2 2 2 2 2 2 2 2 2 2 2 2 2 2 2 2 2 2 2 2
left_child=1 4 -2 9 5 20 7 -5 -9 14 11 12 13 -10 -4 -16 17 -3 -12 24 -1 22 27 -24 -17 -23 -27 -22 -26 -30 -31
right_child=2 16 3 6 -6 -7 -8 8 10 -11 18 -13 -14 -15 15 19 -18 -19 -20 -21 21 25 23 -25 28 26 -28 -29 29 30 -32
leaf_value=0.080861476751174666 0.043388678830304492 0.10955481943967359 -0.09605311699214808 0.10525082764034095 -0.037513966738065431 0.16242622742930124 -0.070404686890114906 0.049124388186289808 0.05752860274310706 -0.11524797640483048 -0.027001455585934104 0.066934570166854016 -0.10361692900176192 -0.081099351049838675 0.026012848360588134 -0.064108313079857079 0.12345312036265413 -0.027802055013862653 -0.13053239459889707 -0.11006247216586335 0.040671909559687427 -0.073258001555379634 0.031272695618373265 0.14907761210764553 0.020381228401771343 0.045903654131488891 -0.041051185441649013 -0.023333705029509762 -0.10835292337252692 -0.031893292203255826 0.022217769096377019
leaf_weight=1.8337182328105104 3.5845938771963111 1.7466161996126166 2.7066249102354076 2.4983974695205751 3.9099878072738639 1.4608264565467823 2.549508247524499 4.018620133399966 3.1648059934377653 2.0438474044203749 1.4795631431043141 2.1269465684890747 2.3793695345520973 1.6423488855361936 4.452537544071677 5.9195432439446511 3.4883331954479218 1.2780520096421242 1.5204928703606126 1.3702594116330136 3.2875499129295367 1.7476376742124546 1.6714907363057139 1.8380162864923475 2.744696892797946 2.719883993268013 2.9969727694988251 3.4947464466094971 1.818710722029208 8.6061042025685293 2.5386322140693656
leaf_count=12 20 22 19 11 20 10 13 17 14 26 10 10 13 10 24 63 42 12 13 17 18 13 10 10 18 14 19 15 27 71 14
internal_value=0 0.342373 -0.197065 -0.239276 0.196754 0.302978 -0.00601209 0.0884964 -0.0589726 -0.394152 -0.23854 -0.0593799 -0.275056 0.101668 -0.342758 -0.281845 0.90045 0.515157 -0.794732 -0.386775 0.204449 0.142056 0.367715 0.929701 -0.341548 -0.169074 0.00318939 0.0769143 -0.228669 -0.320236 -0.195675
internal_weight=0 31.4738 57.1656 53.581 24.9608 21.0508 21.3801 18.8305 16.3321 32.201 12.3135 9.31347 7.18652 4.80715 30.1571 27.4505 6.513 3.02467 3.00006 22.9979 19.59 17.7563 10.2918 3.50951 21.6277 7.46449 5.71686 6.7823 15.7081 12.9634 11.1447
internal_count=627 217 410 390 141 121 111 98 87 279 70 47 37 24 253 234 76 34 23 210 111 99 53 20 193 46 33 33 130 112 85
shrinkage=0.1


Tree=21
num_leaves=32
num_cat=0
split_feature=2 1 3 0 1 0 1 0 0 0 0 7 1 1 1 6 0 4 7 1 1 0 1 1 8 0 1 0 1 0 1
split_gain=4.9438 2.34364 1.38468 4.20518 1.60308 1.25224 2.0977 1.35933 1.73491 1.24208 2.44668 1.22466 1.39653 0.989167 3.04605 1.51564 0.808836 1.26785 0.690625 1.746 2.07309 1.84609 1.25002 1.17571 0.652712 0.629722 0.507746 0.450307 0.449702 0.77891 0.94436
threshold=1.0000000180025095e-35 31.331250000000001 2.5000000000000004 15.500000000000002 26.266650000000002 55.750000000000007 26.775000000000002 47.500000000000007 41.500000000000007 36.500000000000007 32.250000000000007 1.0000000180025095e-35 13.208350000000001 52.277100000000011 64.179150000000007 2.5000000000000004 28.250000000000004 1.5000000000000002 1.5000000000000002 17.600000000000005 10.481250000000001 25.500000000000004 19.022900000000003 13.825000000000001 1.0000000180025095e-35 24.500000000000004 12.500000000000002 23.500000000000004 7.910400000000001 32.250000000000007 7.2396000000000003
decision_type=2 2 2 2 2 2 2 2 2 2 2 2 2 2 2 2 2 2 2 2 2 2 2 2 2 2 2 2 2 2 2
left_child=1 9 3 -2 11 6 -6 8 13 10 18 26 24 15 -15 -8 17 -3 22 20 25 -21 23 -1 -13 -20 -5 -26 29 30 -29
right_child=2 16 -4 4 5 -7 7 -9 -10 -11 -12 12 -14 14 -16 -17 -18 -19 19 21 -22 -23 -24 -25 27 -27 -28 28 -30 -31 -32
leaf_value=0.055274241814466218 0.11658243223073717 0.10856385155307008 -0.08766612610968573 -0.017978538785128242 0.096407949633007056 -0.06515398447027558 0.01276354414108884 0.066238858012817897 -0.12370320158333814 -0.033589372102321546 0.15721304150320656 0.033983322191860593 -0.11061221312211358 0.11531739879447836 -0.028540156418135395 -0.098614052680435493 0.12196167140668046 -0.024759816457861954 0.026682051008342075 0.025674560981335495 0.093759077207403965 -0.10775808675393504 0.12964001083166074 -0.037326406972295015 -0.064339889995059588 -0.04725352000877886 0.046715562216208817 0.045720151263866721 -0.015896480011274097 -0.11043775837289152 -0.05276947868154102
leaf_weight=3.963605903089058 2.3335962593555442 1.594090834259986 2.7328412532806388 2.7322891652584103 2.4569703936576905 2.4830371215939513 2.7252910137176496 2.3739575147628775 1.3425196483731259 3.9290730431675902 1.3633900433778752 1.2722046226263106 2.7842482738196841 2.2767058461904526 4.1636752784252167 2.2146792188286781 3.1930569857358932 1.2908619865775108 2.254160612821579 1.8724231347441671 3.1898326203227043 2.3236186057329178 1.3502261489629743 2.0962541848421097 5.5372192338109043 2.3559756577014923 2.1819683015346527 1.227863304317 8.74712076038122 1.6292970329523084 4.7003507651388645
leaf_count=23 10 22 23 17 11 13 12 10 10 20 10 10 40 10 20 15 42 12 10 17 18 13 10 10 52 10 10 13 62 23 49
internal_value=0 0.316591 -0.182458 -0.146786 -0.207025 0.0131576 0.107181 -0.032277 -0.161894 0.179698 0.277235 -0.350206 -0.437049 -0.0350624 0.223142 -0.371691 0.872867 0.489086 0.186262 0.0379945 0.317813 -0.482157 0.426288 0.232414 -0.356455 -0.111022 0.107461 -0.397011 -0.313335 -0.492004 -0.323701
internal_weight=0 30.7766 55.9158 53.183 50.8494 20.0368 17.5538 15.0968 12.7229 24.6986 20.7695 30.8126 25.8983 11.3804 6.44038 4.93997 6.07801 2.88495 19.4061 11.996 7.79997 4.19604 7.41009 6.05986 23.1141 4.61014 4.91426 21.8419 16.3046 7.55751 5.92821
internal_count=627 217 410 387 377 101 88 77 67 141 121 276 249 57 30 27 76 34 111 68 38 30 43 33 209 20 27 199 147 85 62
shrinkage=0.1


Tree=22
num_leaves=32
num_cat=0
split_feature=2 1 3 0 1 1 1 0 1 0 0 0 0 0 1 0 0 0 7 1 1 5 1 1 1 0 1 1 1 1 1
split_gain=4.15807 2.12105 1.20937 3.46592 1.34743 1.1833 1.38447 1.03982 1.73975 1.10279 1.55108 1.02642 2.1767 0.852202 1.60017 1.39191 0.776429 1.21748 0.583405 1.43395 1.75537 1.73035 1.14279 0.978171 0.57891 0.514796 0.433153 0.618558 0.558759 1.08478 0.718132
threshold=1.0000000180025095e-35 31.331250000000001 2.5000000000000004 15.500000000000002 26.266650000000002 19.379150000000003 15.147900000000002 55.750000000000007 26.775000000000002 47.500000000000007 41.500000000000007 36.500000000000007 32.250000000000007 24.500000000000004 52.277100000000011 28.250000000000004 28.250000000000004 24.500000000000004 1.5000000000000002 17.600000000000005 10.481250000000001 1.5000000000000002 19.022900000000003 13.825000000000001 78.112500000000011 24.500000000000004 7.133350000000001 1.0000000180025095e-35 7.2396000000000003 7.7375000000000007 8.3312500000000025
decision_type=2 2 2 2 2 2 2 2 2 2 2 2 2 2 2 2 2 2 2 2 2 2 2 2 2 2 2 2 2 2 2
left_child=1 11 3 -2 5 6 26 8 -6 10 13 12 18 -10 15 -15 17 -3 22 20 25 -21 23 -1 -16 -20 27 -5 -28 -30 -31
right_child=2 16 -4 4 7 -7 -8 -9 9 -11 -12 -13 -14 14 24 -17 -18 -19 19 21 -22 -23 -24 -25 -26 -27 28 -29 29 30 -32
leaf_value=0.051341912003038087 0.10625317939355217 0.096408958391361585 -0.083687568467152321 -0.0099048596263085296 0.088540801518733406 -0.11344738321709198 0.059645768419322315 -0.060278617544795424 -0.061616946236969332 0.059234445207732959 -0.12109487602477616 -0.030099622443449315 0.1523436167188611 0.02559639893722945 0.084251866272736536 -0.083496734085427335 0.12031979617684073 -0.041900199279376549 0.024203740564621837 0.023467779155950559 0.087593698052482905 -0.10548058752753585 0.12653019021842538 -0.033464731937682193 0.012448786008936114 -0.042913344595819768 0.020781744179566099 -0.11156552610192663 -0.11300553202536708 -0.011033723171789746 -0.04888604275384776
leaf_weight=3.8467493802309152 2.3058145493268958 1.7588071227073663 2.5842929929494849 0.97063831239939746 2.4102238714695039 1.7039019390940655 1.7074913829565037 2.418923892080783 2.0468664914369574 2.3883604109287253 1.2395762018859375 3.9452384486794463 1.2710543870925892 2.2433598861098272 2.5018974393606186 2.4433627352118492 2.9266766309738159 0.99734453856945027 2.2373943030834198 1.9987241700291634 3.0788226053118706 2.1709550768136978 1.2502124458551405 2.1039022505283356 2.0371280089020729 2.3359139114618301 2.0534420013427761 1.5611472837626932 1.6017072126269365 11.495795361697676 8.8865961991250497
leaf_count=23 10 21 23 12 11 25 15 13 10 10 10 20 10 11 11 15 42 13 10 17 18 13 10 10 10 10 13 21 19 103 68
internal_value=0 0.294632 -0.169178 -0.136005 -0.191599 -0.325156 -0.276389 0.0113521 0.0971688 -0.030332 -0.14919 0.165716 0.256448 -0.0324355 0.0970744 -0.312779 0.844497 0.463602 0.17179 0.0351121 0.292202 -0.436695 0.396178 0.213578 0.520264 -0.100777 -0.332483 -0.725908 -0.291045 -0.337641 -0.275371
internal_weight=0 29.9218 54.6005 52.0162 49.7104 29.9807 28.2768 19.7297 17.3108 14.9006 12.5122 24.239 20.2937 11.2726 9.22575 4.68672 5.68283 2.75615 19.0227 11.8218 7.65213 4.16968 7.20086 5.95065 4.53903 4.57331 26.5693 2.53179 24.0375 21.9841 20.3824
internal_count=627 217 410 387 377 276 251 101 88 77 67 141 121 57 47 26 76 34 111 68 38 30 43 33 21 20 236 33 203 190 171
shrinkage=0.1


Tree=23
num_leaves=32
num_cat=0
split_feature=2 1 0 1 1 0 0 0 0 1 1 1 0 0 7 1 1 1 0 1 6 4 0 1 0 0 0 4 7 8 0
split_gain=3.49149 1.89195 1.11628 1.19725 1.07503 1.09302 1.34949 1.32443 0.99389 1.50113 0.903642 0.996547 1.50122 1.09847 0.880077 2.55482 1.67779 1.42604 0.808088 1.52558 1.35398 0.907434 1.07174 1.58822 1.353 0.871011 0.752318 1.23646 0.684943 0.663256 0.46776
threshold=1.0000000180025095e-35 31.331250000000001 9.5000000000000018 26.266650000000002 19.379150000000003 18.500000000000004 21.500000000000004 23.500000000000004 27.500000000000004 7.227100000000001 27.825000000000003 25.527100000000001 36.500000000000007 30.250000000000004 1.5000000000000002 17.600000000000005 10.481250000000001 15.372900000000001 55.750000000000007 26.775000000000002 1.5000000000000002 1.0000000180025095e-35 46.500000000000007 57.489600000000003 28.250000000000004 27.500000000000004 28.250000000000004 1.5000000000000002 1.0000000180025095e-35 1.0000000180025095e-35 19.500000000000004
decision_type=2 2 2 2 2 2 2 2 2 2 2 2 2 2 2 2 2 2 2 2 2 2 2 2 2 2 2 2 2 2 2
left_child=1 10 -2 4 5 -4 30 -8 -9 -10 11 12 13 14 17 16 -16 -1 19 -5 -21 22 23 24 -22 -23 27 -3 -11 -30 -7
right_child=2 26 3 18 -6 6 7 8 9 28 -12 -13 -14 -15 15 -17 -18 -19 -20 20 21 25 -24 -25 -26 -27 -28 -29 29 -31 -32
leaf_value=0.016110644719075404 0.040237892001804228 0.1074659027460238 -0.091045136517435371 0.081459399685328518 -0.11194823415724275 -0.013773336782123927 -0.11731237566211775 0.028810951973218254 -0.11222206757451406 0.023519300495732354 -0.077583971966658255 0.082490931568915488 -0.057282590931185345 0.090210318699845082 -0.018920633327128091 -0.10557748190626837 0.080732570150228236 0.126226905230166 -0.055737607115052816 0.045578797666813664 0.044415711616578667 -0.017549602866776298 0.055765912836329992 -0.096122471991748351 -0.071208270627435052 -0.13080675311353496 0.11845960228666751 -0.029141863847231265 -0.11003764135652867 -0.024881850915232852 0.069811322867365813
leaf_weight=5.1291687265038641 3.3505914509296408 1.4138691723346701 2.4791795089840951 2.360423266887671 1.598267376422881 1.0108402296900778 1.6083789393305803 3.1317718625068691 2.0752571336925056 2.7576561868190739 1.0030119195580471 2.2555071637034407 2.6823952794075003 2.1376107186079016 4.1062048375606537 2.0220345556735992 2.8705793470144272 1.5259333103895185 2.3576926030218592 3.9781581610441199 3.149812847375868 1.3974814116954797 2.106087364256382 2.1855604872107506 1.4911666102707384 1.3208221942186353 2.6877033822238445 1.2468716353178024 0.98938323557376773 12.108222134411335 1.9829108640551563
leaf_count=29 20 22 19 11 26 11 17 26 28 14 10 17 13 13 18 13 17 11 13 17 14 10 10 13 10 13 42 12 13 108 17
internal_value=0 0.274144 -0.156432 -0.193813 -0.321689 -0.276382 -0.215131 -0.29846 -0.231668 -0.322454 0.153058 0.194049 0.124551 0.229693 0.137872 -0.0660354 0.220814 0.41359 -0.00689398 0.0652518 -0.0479195 -0.219908 -0.0659557 -0.25835 0.0726523 -0.725812 0.811434 0.43449 -0.217774 -0.313145 0.41589
internal_weight=0 29.0809 53.4397 50.0891 29.7419 28.1436 25.6644 22.6707 21.0623 17.9305 23.7324 22.7294 20.4739 17.7915 15.6539 8.99882 6.97678 6.6551 20.3472 17.9895 15.6291 11.6509 8.93263 6.82654 4.64098 2.7183 5.34844 2.66074 15.8553 13.0976 2.99375
internal_count=627 217 410 390 279 253 234 206 189 163 141 131 114 101 88 48 35 40 111 98 87 70 47 37 24 23 76 34 135 121 28
shrinkage=0.1


Tree=24
num_leaves=32
num_cat=0
split_feature=2 5 3 0 1 1 1 0 1 6 5 1 7 1 0 0 1 0 1 3 0 4 1 1 7 0 0 1 1 0 1
split_gain=2.92487 1.74781 1.12311 2.74129 1.04657 1.41491 1.35708 1.07988 0.932075 0.882345 1.11981 1.03363 1.13996 0.872357 0.821018 3.17286 0.759652 0.732035 0.685233 0.581053 0.561056 0.486572 0.727455 0.715656 1.08414 0.847627 0.445235 0.491091 0.417807 0.41511 0.667864
threshold=1.0000000180025095e-35 1.5000000000000002 2.5000000000000004 15.500000000000002 56.197900000000011 36.252100000000006 29.850000000000005 30.250000000000004 77.008350000000021 3.5000000000000004 1.0000000180025095e-35 19.379150000000003 1.0000000180025095e-35 13.208350000000001 24.500000000000004 28.250000000000004 7.883350000000001 49.500000000000007 13.208350000000001 1.0000000180025095e-35 48.500000000000007 1.5000000000000002 19.022900000000003 14.254150000000001 1.5000000000000002 27.500000000000004 23.500000000000004 7.7812500000000009 39.643750000000004 21.500000000000004 8.0812500000000025
decision_type=2 2 2 2 2 2 2 2 2 2 2 2 2 2 2 2 2 2 2 2 2 2 2 2 2 2 2 2 2 2 2
left_child=1 13 3 -2 5 6 9 8 -6 -5 -11 12 16 -1 -15 -16 -12 -17 19 26 -9 22 23 24 -3 -26 27 -14 -4 30 -29
right_child=2 21 28 4 7 -7 -8 20 -10 10 11 -13 18 14 15 17 -18 -19 -20 -21 -22 -23 -24 -25 25 -27 -28 29 -30 -31 -32
leaf_value=0.0027701947549989515 0.096905964269460299 0.0661391234133612 -0.037365395362352456 -0.085212659816584657 0.023313740445664477 -0.093149959016060352 0.041308857264559101 0.087189705632552891 -0.067453093535461459 0.043991266024030827 -0.021080600232741272 -0.10907090578599075 -0.1120761402630312 0.11433570540638867 -0.074327866424968927 0.11516521592116757 0.063062008354240209 0.016295619461664673 -0.10773412181720002 0.040664030061747548 0.014701690484433708 -0.029912643716833921 0.076361689148947476 -0.035634907037226632 0.027543360648750501 -0.04783749253700454 -0.021912151143229867 0.031744909330423614 -0.12009077627692755 -0.10969765964014243 -0.062136238971404849
leaf_weight=2.3968298509717014 2.2395685762166968 3.2208264619112033 1.1679780334234231 2.2264801934361449 2.4203554987907392 2.7019620127975932 3.4723396822810164 2.1339316591620445 2.1243212670087814 2.5094143152236965 1.9359360784292279 1.4133447874337424 1.2024694532156086 2.9032979756593686 1.5326640866696832 3.3594784550368786 2.4069909453392029 0.96368730068206754 1.0911804065108288 1.2151324376463879 2.1371115148067474 3.1763860508799544 1.6242401972413052 3.1912122368812552 3.3849495053291321 2.6670309454202652 14.9376307092607 1.2905617132782943 1.2791434824466703 0.67793105542659748 1.8354568406939504
leaf_count=18 10 19 10 13 11 16 19 12 10 13 13 27 14 34 16 44 11 12 17 10 10 20 11 16 15 12 143 11 13 10 17
internal_value=0 0.253773 -0.144613 -0.112221 -0.162954 -0.233429 -0.181347 0.148158 -0.191135 -0.244387 -0.200045 -0.257386 -0.213098 0.562273 0.708552 0.492978 0.25554 0.93126 -0.304569 -0.264717 0.509187 0.0544283 0.134142 0.0521123 0.192683 -0.0567602 -0.30562 -0.563707 -0.806071 -0.387616 -0.233779
internal_weight=0 28.4206 52.4192 49.9721 47.7326 38.9168 36.2149 8.81572 4.54468 32.7425 30.516 28.0066 26.5933 11.156 8.75913 5.85583 4.34293 4.32317 22.2504 21.1592 4.27104 17.2646 14.0883 12.464 9.27281 6.05198 19.944 5.00642 2.44712 3.80395 3.12602
internal_count=627 217 410 387 377 334 318 43 21 299 286 273 246 124 106 72 24 56 222 205 22 93 73 62 46 27 195 52 23 38 28
shrinkage=0.1


Tree=25
num_leaves=32
num_cat=0
split_feature=2 1 3 0 1 1 1 6 6 1 1 0 0 6 5 1 1 0 4 7 1 1 1 0 1 0 0 0 0 1 1
split_gain=2.4481 1.63473 0.980716 2.26915 0.867973 1.19226 1.11464 0.949933 1.66308 0.754706 0.742279 1.14847 0.930336 0.734153 0.924897 0.963394 1.0497 0.732378 1.20096 0.681318 2.14525 1.42595 1.34782 0.463278 0.403813 0.392809 0.8049 1.16244 0.793673 1.11229 0.624036
threshold=1.0000000180025095e-35 31.331250000000001 2.5000000000000004 15.500000000000002 56.197900000000011 36.252100000000006 29.850000000000005 1.5000000000000002 2.5000000000000004 27.825000000000003 25.527100000000001 36.500000000000007 30.250000000000004 3.5000000000000004 1.0000000180025095e-35 19.379150000000003 15.147900000000002 28.250000000000004 1.5000000000000002 1.5000000000000002 17.600000000000005 10.481250000000001 15.372900000000001 38.500000000000007 39.643750000000004 18.500000000000004 21.500000000000004 23.500000000000004 25.500000000000004 7.227100000000001 7.9875000000000016
decision_type=2 2 2 2 2 2 2 2 2 2 2 2 2 2 2 2 2 2 2 2 2 2 2 2 2 2 2 2 2 2 2
left_child=1 9 3 -2 5 6 13 -6 -9 10 11 12 19 -5 -15 16 25 18 -3 22 21 -21 -1 -19 -4 -16 30 -28 -29 -30 -27
right_child=2 17 24 4 7 -7 -8 8 -10 -11 -12 -13 -14 14 15 -17 -18 23 -20 20 -22 -23 -24 -25 -26 26 27 28 29 -31 -32
leaf_value=0.011742437042461933 0.089002100097351045 0.10670025594726962 -0.034493724409640034 -0.078681655958557736 0.063070477961977234 -0.086617092794970998 0.036882471937143703 -0.074053249892430326 0.032872049873315767 -0.073536480161276785 0.07402826446333434 -0.050958513869397308 0.082222595451882152 0.039725586022106268 -0.068595902668914813 -0.10820676261530378 0.058476416393274513 0.16756805366051131 -0.033251793867619756 -0.017439584927742634 -0.096776401253785907 0.075481212481802562 0.12273145229271319 0.077329489295977438 -0.1179967420871747 0.07039864769419818 -0.11577445192279363 0.041348839777422451 -0.11030344136392622 -0.020144867658169117 -0.026247510099073508
leaf_weight=4.9714487493038328 2.1968685984611502 1.2645119391381732 1.1401999332010739 2.1730325892567626 2.6727424114942533 2.6195710413157931 3.4986725598573676 2.3673350512981415 3.772927537560463 0.97691772878169925 2.0219185128808013 2.643199995160102 2.0988082438707343 2.5014180466532734 1.8882778920233345 1.2885389495640982 1.6142002269625653 1.0218044817447665 1.1903554648160934 4.0882587283849716 2.036946676671505 2.7707842662930489 1.4028983190655706 1.2836465835571287 1.1769007779657839 1.585913985967639 1.4061419777572179 1.8145198151469255 1.5044999234378362 15.122766636312006 1.1544221341609953
leaf_count=29 10 22 10 13 12 16 19 13 18 10 17 13 13 13 17 27 15 19 12 18 13 17 11 23 13 15 17 14 24 132 12
internal_value=0 0.235067 -0.133292 -0.103339 -0.149785 -0.215093 -0.16712 0.133083 -0.0835225 0.124717 0.16285 0.10451 0.197962 -0.225618 -0.184806 -0.237984 -0.196297 0.768494 0.388381 0.112161 -0.066641 0.200968 0.361695 1.17324 -0.769065 -0.247808 -0.21118 -0.281321 -0.214496 -0.283028 0.296845
internal_weight=0 27.7715 51.499 49.1818 46.985 38.172 35.5524 8.81301 6.14026 23.0112 22.0343 20.0123 17.3691 32.0537 29.8807 27.3793 26.0907 4.76032 2.45487 15.2703 8.89599 6.85904 6.37435 2.30545 2.3171 24.4765 22.5883 19.8479 18.4418 16.6273 2.74034
internal_count=627 217 410 387 377 334 318 43 31 141 131 114 101 299 286 273 246 76 34 88 48 35 40 42 23 231 214 187 170 156 27
shrinkage=0.1


Tree=26
num_leaves=32
num_cat=0
split_feature=2 1 3 0 4 1 1 6 1 1 0 1 1 1 1 1 0 0 7 1 1 1 0 1 0 0 0 0 1 1 1
split_gain=2.04602 1.4553 0.855295 1.88037 0.729054 0.718142 1.00575 1.12788 1.18109 1.33847 0.866662 0.848892 0.872899 0.726644 0.611527 0.6428 0.938193 0.752978 0.56625 1.73277 1.23285 1.19842 0.415728 0.390452 0.330909 0.686285 1.05233 0.672228 1.01007 0.479042 0.270512
threshold=1.0000000180025095e-35 31.331250000000001 2.5000000000000004 15.500000000000002 1.5000000000000002 56.197900000000011 36.252100000000006 2.5000000000000004 26.775000000000002 26.266650000000002 30.250000000000004 19.379150000000003 15.147900000000002 77.008350000000021 27.825000000000003 25.527100000000001 36.500000000000007 30.250000000000004 1.5000000000000002 17.600000000000005 15.372900000000001 10.481250000000001 48.500000000000007 39.643750000000004 18.500000000000004 21.500000000000004 23.500000000000004 25.500000000000004 7.227100000000001 7.9875000000000016 11.750000000000002
decision_type=2 2 2 2 2 2 2 2 2 2 2 2 2 2 2 2 2 2 2 2 2 2 2 2 2 2 2 2 2 2 2
left_child=1 14 3 -2 -3 6 7 -5 9 11 13 12 24 -7 15 16 17 18 20 21 30 -20 -12 -4 -9 29 -27 -28 -29 -26 -1
right_child=2 4 23 5 -6 10 -8 8 -10 -11 22 -13 -14 -15 -16 -17 -18 -19 19 -21 -22 -23 -24 -25 25 26 27 28 -30 -31 -32
leaf_value=0.028819082004822239 0.081876610547981607 0.10537161779789062 -0.031791432001146487 0.03643189770231664 0.022376248640397736 0.018505631906001237 -0.080540188219656542 -0.064802284568988039 -0.094010139693102318 0.058953857189588205 0.075446103562733569 -0.10875551704611222 0.051860615296895396 -0.062039800531006453 -0.065640478106192002 0.070057331570164985 -0.045941659449148145 0.074372337627903157 -0.015675401085591078 -0.086608728832319057 0.12024799566350074 0.07033570183184959 0.013146732437421337 -0.11613690574414809 0.06020299423438355 -0.11422863615979047 0.036211587611556184 -0.10928571590355225 -0.019714313633459941 -0.024135731688492736 -0.01942780056054759
leaf_weight=3.0813425779342802 2.1516582518815985 2.778734177350997 1.1147866621613496 3.7527235001325598 1.7095727771520612 2.4288729280233365 2.5397663228213778 1.8034445904195475 2.1005549170076838 2.1824415028095236 2.1339918300509453 1.0938424728810776 1.636833369731902 2.0785771757364273 0.98457594215869793 1.9278554320335375 2.6388803124427787 2.0888373851776114 4.0932519435882568 2.047851175069809 1.2942587807774542 2.6809450760483742 2.1505940407514572 1.0810814499855039 1.6644717454910307 1.2886658720672155 1.8620381206274057 1.3733570463955427 15.114443834871052 1.1311545595526693 1.8657779917120931
leaf_count=19 10 59 10 20 17 11 16 17 16 11 12 24 15 10 10 17 13 13 18 13 11 17 10 13 15 17 14 24 133 12 10
internal_value=0 0.217282 -0.122737 -0.0950921 0.737591 -0.137528 -0.197773 -0.153686 -0.215889 -0.163704 0.119731 -0.224661 -0.188182 -0.186373 0.114421 0.149364 0.0956709 0.181071 0.103049 -0.0600303 0.333557 0.183642 0.441757 -0.733168 -0.235913 -0.202785 -0.268775 -0.207431 -0.271752 0.260782 0.10623
internal_weight=0 27.1919 50.6833 48.4874 4.48831 46.3358 37.5437 35.004 31.2512 29.1507 8.79204 26.9683 25.8744 4.50745 22.7036 21.719 19.7911 17.1523 15.0634 8.82205 6.24138 6.7742 4.28459 2.19587 24.2376 22.4341 19.6385 18.3498 16.4878 2.79563 4.94712
internal_count=627 217 410 387 76 377 334 318 298 282 43 271 247 21 141 131 114 101 88 48 40 35 22 23 232 215 188 171 157 27 29
shrinkage=0.1


Tree=27
num_leaves=32
num_cat=0
split_feature=2 5 0 0 0 1 0 1 3 3 0 0 4 0 0 1 1 5 1 0 1 0 0 1 1 1 1 0 1 1 1
split_gain=1.71001 1.33847 0.887328 2.3942 1.38516 0.784421 0.896457 0.906451 0.883029 1.40274 1.78731 1.44062 2.22574 0.957341 1.4331 1.0493 1.63947 0.890848 0.771212 1.08114 0.867643 0.783963 0.685229 0.607224 0.455439 0.931704 0.819465 0.877032 0.625767 0.452168 0.400647
threshold=1.0000000180025095e-35 1.5000000000000002 23.500000000000004 27.500000000000004 49.500000000000007 7.7625000000000011 28.250000000000004 7.2396000000000003 2.5000000000000004 1.0000000180025095e-35 27.500000000000004 47.500000000000007 1.0000000180025095e-35 45.500000000000007 31.500000000000004 7.9875000000000016 26.266650000000002 1.5000000000000002 8.0812500000000025 25.500000000000004 39.20000000000001 19.500000000000004 27.500000000000004 7.8125000000000009 14.254150000000001 15.875000000000002 8.6729000000000003 27.500000000000004 23.125000000000004 7.7375000000000007 19.379150000000003
decision_type=2 2 2 2 2 2 2 2 2 2 2 2 2 2 2 2 2 2 2 2 2 2 2 2 2 2 2 2 2 2 2
left_child=1 2 -1 -4 30 6 7 22 9 13 -11 12 -12 14 18 -16 17 -17 23 21 -21 -20 -2 -7 26 -26 27 -3 -27 -9 -5
right_child=5 24 3 4 -6 8 -8 29 -10 10 11 -13 -14 -15 15 16 -18 -19 19 20 -22 -23 -24 -25 25 28 -28 -29 -30 -31 -32
leaf_value=0.10885839528209831 0.055015743450299109 0.036744710175169268 -0.055507552601344018 0.044753217245042873 -0.023095564303003413 0.0024876387464058463 -0.11097835766733916 -0.11268968826362194 -0.069823618457395403 0.087729497307059173 -0.090714555591513688 0.057300899208082991 0.080665754405768578 -0.054739327343964472 0.11758482944739033 -0.11714509996704865 0.064294232444149335 0.0058597203537779008 -0.0077740299354216932 0.031982722122064454 -0.034114620820377833 -0.091193424154730141 -0.04140895540286349 -0.069717521968866283 -0.070369613758891766 0.0396234686129108 0.058183807253643721 -0.037186455212794338 -0.033580544006561658 -0.024457474147168951 0.11203018710761221
leaf_weight=1.9875651784241217 1.6849387288093558 2.9348055273294467 2.167495746165514 1.2107278704643247 1.304168604314327 1.6049852371215916 1.5038252137601373 1.2106081768870354 2.0831912346184245 3.4675215203315002 2.6364869363605981 2.4587463457137346 1.0634649433195589 4.7410805076360694 1.229654625058173 1.0210197865962982 3.0281024947762489 1.390841968357563 2.3981576561927787 6.7068221755325776 2.821433424949646 2.1246904581785202 1.3099560625851154 4.2456562221050262 2.212068408727645 2.7170795872807503 3.1996804922819138 3.5400808602571487 2.0478427037596703 1.1164981834590435 3.2919512949883938
leaf_count=30 14 14 16 10 14 12 25 15 23 22 32 12 12 30 10 11 16 12 18 37 13 19 15 51 11 17 15 20 16 11 54
internal_value=0 0.200841 0.490782 0.341782 0.676548 -0.113099 -0.428033 -0.235392 -0.0631316 -0.0308139 0.303037 -0.020287 -0.414553 -0.133448 -0.0595883 0.34158 0.153001 -0.462122 -0.194031 -0.067006 0.124105 -0.469618 0.128399 -0.499097 0.0273819 -0.167364 0.167827 -0.0367643 0.0816224 -0.703577 0.9394
internal_weight=0 26.6135 9.96191 7.97434 5.80685 49.8477 6.82583 5.322 43.0219 40.9387 9.62622 6.1587 3.69995 31.3124 26.5714 6.66962 5.43996 2.41186 19.9017 14.0511 9.52826 4.52285 2.99489 5.85064 16.6516 6.97699 9.67457 6.47489 4.76492 2.32711 4.50268
internal_count=627 217 124 94 78 410 80 55 330 307 78 56 44 229 199 49 39 23 150 87 50 37 29 63 93 44 49 34 33 26 64
shrinkage=0.1


Tree=28
num_leaves=32
num_cat=0
split_feature=2 1 0 0 0 6 0 0 1 0 0 0 0 0 1 1 0 0 1 5 7 8 1 1 1 1 8 6 1 0 1
split_gain=1.43176 1.21889 0.793965 0.760821 1.16746 0.717152 1.09269 0.858599 0.609997 0.550787 0.542329 1.58921 0.50381 1.09083 0.848848 0.493294 0.437747 1.14451 0.41443 1.60913 0.856383 0.693871 0.952991 0.492614 0.404265 1.19308 1.04573 1.17681 0.534883 0.355432 0.663441
threshold=1.0000000180025095e-35 31.331250000000001 6.5000000000000009 28.250000000000004 24.500000000000004 4.5000000000000009 18.500000000000004 20.250000000000004 18.375000000000004 38.500000000000007 36.500000000000007 32.250000000000007 23.500000000000004 27.500000000000004 7.227100000000001 7.8125000000000009 50.500000000000007 42.500000000000007 26.775000000000002 1.5000000000000002 1.0000000180025095e-35 1.0000000180025095e-35 12.500000000000002 8.3312500000000025 29.850000000000005 36.252100000000006 1.0000000180025095e-35 1.5000000000000002 82.664550000000006 8.0000000000000018 14.254150000000001
decision_type=2 2 2 2 2 2 2 2 2 2 2 2 2 2 2 2 2 2 2 2 2 2 2 2 2 2 2 2 2 2 2
left_child=1 10 -2 4 -3 24 8 -8 -7 -5 11 29 15 -14 -15 -9 17 18 20 -20 -16 -22 23 -23 -4 -26 27 -27 -29 -1 -31
right_child=2 3 5 9 -6 6 7 12 -10 -11 -12 -13 13 14 16 -17 -18 -19 19 -21 21 22 -24 -25 25 26 -28 28 -30 30 -32
leaf_value=0.057088928177630428 0.045191391050778518 0.088633776106526369 -0.024581208959019035 0.17947953151512477 -0.063003332534300571 -0.045726484609297846 0.044382089125780955 -0.016551240287281232 -0.13772472774353126 0.069628771686654808 -0.025610776629263018 0.14076113920711733 0.031854862372640728 -0.10788930287675587 0.031373997833327248 -0.1138431480399722 -0.068393413374870426 0.058451320370954678 -0.12485196121854568 0.017264919965092666 -0.10700474310518522 -0.021262884071709769 0.041358923606082829 -0.078237282562301502 0.078452085789692552 0.071514452988050689 -0.067196768754100827 0.020173130724638791 -0.055020070872816053 0.022201837372675212 -0.019114692484331133
leaf_weight=1.4362206645310056 2.4362034648656836 1.2769401855766771 3.3324893414974204 0.78748802095651615 0.84285711869597424 2.1448787897825237 2.2229181081056621 0.99633689969778372 1.0854593198746441 1.0857323259115217 3.6965238377451888 0.97268500924110324 3.9598407261073616 1.1758394576609159 2.912905327975758 1.0926525853574274 1.7414100728929032 1.8591393455862988 1.660673674196004 1.5314028225839138 1.051099982112645 5.3034014850854874 1.926633710041642 2.1258874908089638 2.3329580575227729 2.4327049851417524 1.9190109819173813 1.8815578669309618 1.9026515036821365 9.4235869571566599 6.6143438406288615
leaf_count=12 15 21 20 19 13 19 20 10 13 23 20 10 32 24 16 16 14 15 14 11 23 63 16 16 11 11 10 10 11 53 46
internal_value=0 0.185198 -0.104601 0.693745 0.28341 -0.1337 -0.214189 -0.153844 -0.766398 1.15809 0.0934942 0.16355 -0.202442 -0.163394 -0.253039 -0.674401 -0.204757 -0.159336 -0.243088 -0.566712 -0.165533 -0.299681 -0.213133 -0.375661 0.0575334 0.154095 -0.0266778 0.172508 -0.17633 0.0943005 0.0516212
internal_weight=0 26.1364 49.0281 3.99302 2.1198 46.5919 32.7905 29.5601 3.23034 1.87322 22.1434 18.4468 27.3372 25.2482 21.2884 2.08899 20.1126 18.3711 16.512 3.19208 13.3199 10.407 9.35592 7.42929 13.8014 10.4689 8.13593 6.21691 3.78421 17.4742 16.0379
internal_count=627 217 410 76 34 395 322 290 32 42 141 121 270 244 212 26 188 174 159 25 134 118 95 79 73 53 42 32 21 111 99
shrinkage=0.1


Tree=29
num_leaves=32
num_cat=0
split_feature=2 5 0 0 0 0 1 0 1 6 6 1 6 0 0 1 5 1 1 1 1 7 1 7 1 3 1 0 0 0 4
split_gain=1.1904 1.15145 0.837748 1.9874 1.25258 0.691984 0.637766 1.20749 0.917516 0.903353 1.27327 0.842318 0.79924 0.645701 1.04214 0.635315 0.547165 0.777081 0.417099 0.645912 0.412995 0.388098 0.849335 0.467451 0.333617 0.768696 0.674077 0.708615 0.539554 0.314726 0.183666
